# milady test
 # 
 # LAMMPS SNAP coefficients for W
 
 1 56
 W 0.5 1
 0.0
1.321940653161492001e-02
6.176916966636025741e-02
2.793838792590672138e-01
3.418221756975769327e-02
5.427142007892715725e-01
3.986410499063604285e-02
1.806624101425479134e-01
3.909075055537054866e-02
9.338844589605860280e-02
1.981775845026950977e-01
7.844991220933555942e-02
2.387392299682799049e-02
-2.722752725547072927e-02
1.367713222457606070e-02
2.868732761823250890e-02
6.913834080820991171e-03
9.107358506091706163e-02
6.736641816973490404e-04
-1.714595814591543879e-02
-8.845871965634091727e-03
-9.675239118279985173e-03
1.169710562882730898e-03
-2.217818232438494973e-03
5.930167051342914719e-02
5.185034327662155218e-02
4.849401552338245686e-02
2.596707075945144105e-02
-1.714272182578683917e-03
-5.854027598003151700e-03
2.547243715260305921e-02
-1.344101508751801947e-02
9.360886712337555815e-03
-1.020384381988045930e-02
1.060205600153361037e-02
4.992591411781451688e-02
2.397745743836762061e-02
2.918687280721922114e-02
4.789186798878172779e-03
1.821898542123375972e-02
2.310680592280598983e-03
-6.714954259338101750e-04
-2.470574571749054038e-03
-7.516211472813894012e-03
1.572965039033887014e-02
2.625741322030989908e-02
-1.322971249539021000e-03
-5.916604053680385444e-04
2.544520537383126047e-03
1.145916802984697953e-02
5.018498189743925142e-03
-1.920214823572727108e-03
5.561958728465762197e-03
2.908544432361958188e-03
-2.965112083396698184e-03
6.004129900488847094e-04
