# milady test
 # 
 # LAMMPS SNAP coefficients for W
 
 1 56
 W 0.5 1
 0.0
1.462647117714731965e-02
5.819504631534003908e-02
3.295814238214612168e-01
3.637423658300645291e-02
5.586168554684858290e-01
4.129482162536651096e-02
1.831851790906016131e-01
3.876948264317466725e-02
1.099839764348775062e-01
2.171701655171129897e-01
9.373054329578228705e-02
3.641831477411353740e-02
-1.997371028977923055e-02
1.371386412068236957e-02
4.433226772793309040e-02
2.129532093453006050e-02
9.317991896776955940e-02
1.223609780130524051e-02
-1.103070602588243979e-02
-5.356940725229387967e-03
-8.570581364789844891e-03
2.165700428806760936e-03
-2.796846138059417165e-03
6.953814099108868163e-02
5.666306789810159755e-02
5.109688598944551324e-02
2.909387702706528120e-02
2.187934044414488032e-03
-3.560812726566400799e-03
2.523749833515277069e-02
-1.481197949593491929e-02
9.817795992909383873e-03
-1.087714334592678952e-02
1.704005695761540845e-02
4.737360400128722698e-02
2.310924251517624053e-02
2.952510957715304141e-02
4.976642318189478109e-03
1.841734472083820032e-02
2.953615452474731007e-04
-9.479475395180389508e-04
-2.439022534258053054e-03
-7.317760029425635082e-03
1.742259889659802941e-02
2.250082908243659918e-02
-5.492619192035766429e-04
-8.535628041217852013e-04
1.089366785239030948e-03
9.784228513628090429e-03
3.265086140037155860e-03
-2.010584468070189968e-03
3.793338394268860880e-03
2.582656566563091161e-03
-2.524195013099834062e-03
3.796309611805991926e-04
