# milady test
 # 
 # LAMMPS SNAP coefficients for W
 
 1 56
 W 0.5 1
 0.0
1.530398450179708963e-02
5.523443404647535027e-02
3.071618297804288855e-01
3.431769041385764746e-02
5.480421982260544889e-01
4.637509793655657242e-02
1.822385563213581028e-01
3.753494133093546181e-02
1.120875555635535009e-01
2.153563378976315057e-01
9.491533359468666553e-02
3.542058105844975158e-02
-2.000523318590211042e-02
1.365516532213217026e-02
4.487210817827434750e-02
2.229201566297573864e-02
9.825494013569845142e-02
1.086632382539544014e-02
-9.613298014070445485e-03
-7.271970716226595390e-03
-9.191965244700381343e-03
2.380889469461495035e-03
-2.263349476856412867e-03
6.963958850647858356e-02
5.362289507119118170e-02
5.396844719334147750e-02
2.903156821572039012e-02
3.432103535811394102e-03
-8.789504313638590860e-03
2.639852958875925013e-02
-1.994152449212116887e-02
1.093530371421260958e-02
-1.056837707375729921e-02
1.768460561243842891e-02
4.811565488382924666e-02
2.407823423891249093e-02
3.086680065987656985e-02
3.040490068081394982e-03
1.875152509880094118e-02
-2.719336087620510822e-03
-2.910557638375749212e-03
-2.474751625621495876e-03
-7.373740130821260230e-03
1.894916129453035059e-02
2.471403107331652041e-02
4.468167340901246787e-04
-1.094546305585204988e-03
-6.722127955892109874e-04
7.185800496466804299e-03
2.398765748747414949e-03
-2.382899638773583028e-03
3.504269540556415995e-03
2.099339774000084924e-03
-2.300224450732649140e-03
5.670414657859279561e-04
