# milady test
 # 
 # LAMMPS SNAP coefficients for W
 
 1 56
 W 0.5 1
 0.0
1.666368091657167982e-02
5.034117184443676757e-02
3.291899262418335748e-01
3.613420592105166806e-02
5.304920556172099122e-01
4.607569602833515299e-02
1.851984906801510122e-01
3.728483816255190320e-02
1.143392925704455054e-01
2.201037517622969064e-01
1.018649985843776973e-01
4.414807237319123834e-02
-1.431734281834998006e-02
1.209402113852008076e-02
5.457121899871532344e-02
3.015993689520422849e-02
1.015516063365503041e-01
2.394879713274213062e-02
-3.372348951099917846e-03
-4.730210481398162969e-03
-5.374073952447316373e-03
2.220009724051840837e-03
-3.674039867580746865e-03
7.777590525720756709e-02
5.898813898425366714e-02
5.436585094573950783e-02
3.167528489692041788e-02
5.384721702462902382e-03
-2.216211533385469955e-03
2.874003028068947835e-02
-1.745861342441797082e-02
1.096386037871448053e-02
-1.130860656448235031e-02
2.407996003823493006e-02
4.821343850833779282e-02
2.036395363462056851e-02
3.144574466315885886e-02
5.132471181310813146e-03
1.981701348012617978e-02
-2.007393863606779950e-03
-2.222580620108674954e-03
-3.164705578021211052e-03
-7.932247587355778506e-03
2.337282479704306040e-02
2.664171404508289959e-02
9.419253526383036812e-04
2.570158599135772257e-04
-1.382606749906919097e-03
8.193181073405275683e-03
2.622265299849573916e-03
-2.403811454291665973e-03
2.764241688820796156e-03
3.196086830863531947e-03
-1.405844323060997936e-03
5.249795974641979779e-04
