# milady test
 # 
 # LAMMPS SNAP coefficients for W
 
 1 56
 W 0.5 1
 0.0
1.771773135357886109e-02
4.642130594445879888e-02
3.521213002399288250e-01
3.542198671056945303e-02
5.299433380223110834e-01
5.400613165847208824e-02
1.830106534245884986e-01
3.711606155279399688e-02
1.189098317085287987e-01
2.260870741264681127e-01
1.084305696135847014e-01
4.952555783334731260e-02
-1.089700180942623081e-02
1.164114039901814959e-02
6.373086591607701745e-02
3.923693307485035670e-02
1.032259815737981978e-01
2.963319551107249095e-02
1.133610070963784040e-04
-3.569845260215997063e-03
-4.021112362322581957e-03
2.759660244822880869e-03
-3.801575084658225922e-03
8.368196179973429183e-02
6.247717600267554960e-02
5.663040465743562207e-02
3.324119297628658209e-02
6.644487221281281629e-03
-2.327642261914820987e-03
2.926664884539401101e-02
-2.035521632957662877e-02
1.118140924242735923e-02
-1.169220463548997953e-02
3.008756283176780913e-02
4.930606920424353973e-02
2.042638246270405897e-02
3.175444595530262787e-02
4.929824244234534691e-03
2.027855681041612970e-02
-4.290651943290355042e-03
-3.196634712460726113e-03
-3.221967672116938120e-03
-8.116885065767548424e-03
2.660406499654809076e-02
2.790304202068398173e-02
1.401395774790468052e-03
1.704849267612565118e-04
-2.405611627845632029e-03
6.862359615676050240e-03
2.015066121022895951e-03
-2.526048227470642938e-03
1.985564383172083031e-03
3.064144884382704204e-03
-1.395568077131300938e-03
5.075522139272314881e-04
