# milady test
 # 
 # LAMMPS SNAP coefficients for W
 
 1 56
 W 0.5 1
 0.0
1.405456244218001964e-02
5.739301131012417706e-02
2.353901772607286946e-01
2.978364515252089964e-02
4.976485895628467993e-01
3.409651963078928760e-02
1.627896434808009940e-01
3.584817317534119696e-02
8.343478765753145621e-02
1.848149323413114942e-01
7.197978835318365187e-02
2.264051942981731846e-02
-2.455278322677111047e-02
1.361177340567132008e-02
2.467291447583767894e-02
-1.866945988604370088e-03
9.129509583703152020e-02
-6.545988078123675044e-04
-1.421043065975994071e-02
-1.155313965954789072e-02
-9.553145095658396868e-03
1.545054825859786939e-03
-2.825849393120443819e-03
6.097067955809686718e-02
5.173940633205102724e-02
5.473545505052410109e-02
2.973217341004420061e-02
-4.877080922974508237e-04
-8.064893585033303114e-03
2.869121437838221059e-02
-1.285544766915765018e-02
1.149922630503319963e-02
-1.093662089109260008e-02
1.257923269911669951e-02
5.134336390939810146e-02
2.438818865009063919e-02
3.110871731824512917e-02
5.671344211234492609e-03
1.770426291228291080e-02
3.159608341600141784e-03
-6.494746823682007175e-09
-2.522914648726031894e-03
-8.009642391707927356e-03
1.853702576636953939e-02
3.027546641611122968e-02
-7.739025512054908962e-04
-8.327199498196768968e-05
6.263117524255221169e-04
9.978731707516438898e-03
5.262591710849862103e-03
-2.330542397065038952e-03
8.237273776137900294e-03
2.888700598342743963e-03
-2.582034738339400014e-03
1.467150570958433925e-03
