# milady test
 # 
 # LAMMPS SNAP coefficients for W
 
 1 56
 W 0.5 1
 0.0
1.112717781659611042e-02
7.395233101841731937e-02
2.826762959808336029e-01
3.665883933111607762e-02
6.018760723524056999e-01
6.739997355168921012e-02
1.701950750797661116e-01
4.123764728386704326e-02
7.349574991987153916e-02
1.795769299803675889e-01
2.909313890620612852e-02
-1.990967375456953025e-03
-4.749729164085011307e-02
1.309380220722184025e-02
7.623860913835538156e-03
-1.206573928714630914e-02
6.641553172837605379e-02
-2.529850547103038028e-02
-3.849906073327988287e-02
-1.001749874757327033e-02
-1.355475558498807007e-02
-2.781473091959946187e-03
-2.867324543617488786e-03
4.265964080902968220e-02
4.517747966826726747e-02
3.286071030851533958e-02
1.865450263305439005e-02
-8.320623355312223302e-03
-7.534987940884259328e-03
2.167966004239952130e-02
-8.321586205189371310e-03
6.894536473777329588e-03
-1.099699101857345984e-02
-4.841287492589745577e-03
5.293263410574775701e-02
2.223569266848833895e-02
2.620309985207812040e-02
6.858995604803838630e-03
1.751564288309484865e-02
8.020201745752780081e-03
2.084307002126993980e-03
-3.021067564700775075e-04
-7.530422519314294849e-03
4.199147129114060017e-03
2.676002418222723014e-02
-3.283204648747567022e-03
-1.564102921501330911e-03
8.787054285598484837e-03
1.570302106499113851e-02
7.051184551615768958e-03
-1.975804346864131877e-03
6.869053226791346084e-03
2.693582381062209052e-03
-4.241619371441802955e-03
9.290267566789411902e-04
