# milady test
 # 
 # LAMMPS SNAP coefficients for W
 
 1 56
 W 0.5 1
 0.0
1.328389179024383991e-02
5.962375108058976664e-02
2.234183386241092861e-01
3.037898833639189958e-02
4.976223073202586944e-01
4.088166329210445732e-02
1.803139504222308898e-01
3.628442555426471261e-02
9.056481051449859210e-02
1.919924670774184883e-01
8.110110268130069078e-02
2.827603845509149907e-02
-2.404127905086375985e-02
1.344453217995441978e-02
2.519677342860226002e-02
4.283667022952409621e-03
9.934538621873131858e-02
5.494841866464802993e-03
-1.297110091889456043e-02
-1.100621538705602934e-02
-8.068266138774524143e-03
1.604901726168284082e-03
-1.788793052016401930e-03
5.707889198424923038e-02
4.874528318806904681e-02
5.280339764890647214e-02
2.966004518972146023e-02
-2.325749807135583090e-04
-6.526602338689277416e-03
2.823856319129900913e-02
-1.517449454223574953e-02
1.100718846286250982e-02
-9.285072529169213773e-03
8.494150451004697788e-03
5.124320592131632879e-02
2.388471976614004941e-02
3.125574555224282236e-02
4.399468153350107047e-03
1.816771219852520922e-02
1.061577206486842995e-03
-1.791149642015870064e-03
-3.156102362310145033e-03
-7.351753844665964710e-03
1.833080962249658899e-02
3.283367746824478184e-02
-6.618088569412955424e-04
4.792019679594750059e-06
4.388954543600563792e-04
9.338313443396584201e-03
5.344920868661930113e-03
-2.183144582364654040e-03
7.426109687675373425e-03
2.999066720401399877e-03
-2.174488389056928195e-03
1.294100476435063995e-03
