# milady test
 # 
 # LAMMPS SNAP coefficients for W
 
 1 56
 W 0.5 1
 0.0
1.539715178140712952e-02
5.339361534490207756e-02
2.602654218547382214e-01
3.287820877416432197e-02
5.019930718194081098e-01
4.757135478406331053e-02
1.855648331678295959e-01
3.682044621153288122e-02
1.050768844051711004e-01
2.064887851686726949e-01
9.415277643862041135e-02
3.722704875586337059e-02
-2.051973398962966127e-02
1.234922686253588954e-02
4.023839665969398266e-02
2.067968633684296939e-02
1.057730967204486977e-01
1.480480349694053045e-02
-6.358102630332380933e-03
-9.267920716051251950e-03
-5.610451202497798717e-03
3.037070527686814170e-03
-2.182636809500094078e-03
6.615146434989321866e-02
5.012409730909322264e-02
5.616620972833930719e-02
3.025754551676467993e-02
3.405631382018145959e-03
-8.154628353378046146e-03
3.058246486717135920e-02
-2.142741840283332935e-02
1.173706897851392941e-02
-9.702765043821004465e-03
1.496985214492380957e-02
4.992258531310118236e-02
2.469397175485799067e-02
3.223621430417220740e-02
1.999325850039884982e-03
2.047510077336043080e-02
-2.875276268988799944e-03
-4.906833158128787176e-03
-2.787589533823609921e-03
-7.903607564774484118e-03
2.183123618321632098e-02
3.074797432567169878e-02
6.672037033361305491e-04
-1.059528573542454100e-03
-1.213983850609439081e-03
7.421514709997967252e-03
3.656260609798748108e-03
-2.576576001548148021e-03
2.898854142575726153e-03
2.037813577382890928e-03
-2.216575237297152990e-03
6.833949333980154917e-04
