# milady test
 # 
 # LAMMPS SNAP coefficients for W
 
 1 56
 W 0.5 1
 0.0
1.577119291277486943e-02
5.240894995053736044e-02
2.995840046263791856e-01
3.543251714193963731e-02
5.249749315553849938e-01
4.412161803633098817e-02
1.840990979323472998e-01
3.703961499154354020e-02
1.077854175792889030e-01
2.133828203827443926e-01
9.565729436599454405e-02
3.896242299083783889e-02
-1.712569650405417962e-02
1.244607782830925956e-02
4.609688064586534018e-02
2.185762800440700995e-02
1.006422745596920049e-01
1.812306586878626932e-02
-5.638874756351067163e-03
-6.066681392744487089e-03
-6.472550172015958427e-03
2.197599094274707999e-03
-3.322857942105073015e-03
7.204787920152176672e-02
5.625544658064555309e-02
5.352840678560440851e-02
3.044453230002095931e-02
3.998475459730657655e-03
-2.400352050728942876e-03
2.830592280707957056e-02
-1.593907652860528101e-02
1.073539365889352934e-02
-1.089567858773951917e-02
1.948550314472545855e-02
4.859046008616719342e-02
2.059517531848767055e-02
3.158508929212858196e-02
5.225310665067678384e-03
1.923061994945064052e-02
-4.188910376279956203e-04
-1.819833566867031915e-03
-3.119750387175670991e-03
-7.864753222769138574e-03
2.184045032804071002e-02
2.746061340686522037e-02
7.800077218436743398e-04
2.613156038774391843e-04
-5.508739784104467463e-04
8.794990922021572732e-03
3.157042932687286873e-03
-2.298655492757567965e-03
4.044445309430723910e-03
3.164442567728873845e-03
-1.762260801799115035e-03
6.571479376930172700e-04
