# milady test
 # 
 # LAMMPS SNAP coefficients for W
 
 1 56
 W 0.5 1
 0.0
1.651629794083655026e-02
4.947789595581220806e-02
3.012292076833218979e-01
3.462029062701566656e-02
5.129331583277877415e-01
4.523115333434540170e-02
1.800033195284000131e-01
3.698628944702306298e-02
1.051772706663827023e-01
2.120514921767845951e-01
9.623847307851500499e-02
4.010407123883624053e-02
-1.610001653272334979e-02
1.199490223779408997e-02
4.786989062114756222e-02
2.408523413355085144e-02
1.014665002009930012e-01
2.063478651024815147e-02
-4.474280581727843598e-03
-6.841647007242621613e-03
-5.313120808650594572e-03
1.962865188355512880e-03
-3.797620969527514944e-03
7.597966807120612454e-02
5.811041407205366077e-02
5.464338201979866694e-02
3.141803136825364190e-02
4.379849502404561425e-03
-2.792447261516554924e-03
2.959378573962416145e-02
-1.672235106908694091e-02
1.126036599880955030e-02
-1.131229881355345045e-02
2.336334312945392844e-02
4.978864335200784697e-02
2.016412715205719020e-02
3.165270596538172221e-02
5.360907148384955190e-03
1.987702126127536065e-02
-9.287625772962035398e-04
-1.977241480368888138e-03
-3.241018315195243193e-03
-8.279036987059479324e-03
2.448780733812308888e-02
2.941338883989616168e-02
6.681371048564699322e-04
5.085209225250235388e-04
-1.253074933641206085e-03
9.004601240101453574e-03
3.688096315798555791e-03
-2.487179231888069896e-03
3.277886865837478791e-03
3.579159223897703922e-03
-1.222510418052561105e-03
7.136374591955318980e-04
