# milady test
 # 
 # LAMMPS SNAP coefficients for W
 
 1 56
 W 0.5 1
 0.0
1.378678524892010954e-02
5.848535957941868729e-02
2.574177145288765178e-01
3.476957079945688228e-02
5.131122204623858041e-01
3.513705779623670783e-02
1.771368884244048925e-01
3.775622805421743888e-02
8.799749475804491405e-02
1.948174173378842133e-01
8.026066352521749048e-02
2.684892073201669907e-02
-2.338635116979391124e-02
1.312965687620882942e-02
2.934049622415494871e-02
4.995126827220077934e-03
9.491886712935310166e-02
6.079818020255582656e-03
-1.189684049484092919e-02
-8.981393778379604537e-03
-7.835251149482400090e-03
1.958490997867060046e-03
-3.131442277911066895e-03
6.267184313441181986e-02
5.311106993797785891e-02
5.186991641831664723e-02
2.826289835662535929e-02
2.254954134209632977e-04
-2.224005074581883023e-03
2.790169194415708862e-02
-1.128852242775220047e-02
1.002848521796852015e-02
-1.047894295490123077e-02
1.201558322308152009e-02
4.935770199046284057e-02
2.195660964833848899e-02
3.040496172738466063e-02
5.776095024820700370e-03
1.834611416700070163e-02
3.832886245847710871e-03
-5.772322118607828290e-04
-2.763737787222220188e-03
-7.997473564875012819e-03
1.852463244076154106e-02
2.819150113239183089e-02
-7.554175423563902481e-04
5.900876899375684381e-06
1.725249688758965106e-03
1.164085352449734968e-02
5.248050949701377199e-03
-1.973652527282369895e-03
5.477774519238698403e-03
3.219576884695277141e-03
-2.648118432584029014e-03
8.100215110561082010e-04
