# milady test
 # 
 # LAMMPS SNAP coefficients for W
 
 1 56
 W 0.5 1
 0.0
1.864296718779431122e-02
4.056903390858915270e-02
3.402903408058737256e-01
3.444267275886465224e-02
5.077112969581076829e-01
5.980111450365455800e-02
1.791046493001539897e-01
3.661258621731475899e-02
1.172661807431416015e-01
2.249164557690050137e-01
1.082655928324228051e-01
4.976521106370879188e-02
-1.054197728385614964e-02
1.127116417136624950e-02
6.587346553238304647e-02
4.240764331879542243e-02
1.050744419558476000e-01
3.066132115227176991e-02
2.157026093078141804e-03
-5.178148089785204050e-03
-3.223388290227342801e-03
3.308437211920874088e-03
-3.912624854713442346e-03
8.759414728638934000e-02
6.303967196434090425e-02
5.936227901892784237e-02
3.407615870421636800e-02
7.787641130652049604e-03
-5.458718231278517595e-03
3.098408086970757050e-02
-2.353291518782394884e-02
1.199109746492616965e-02
-1.182347074960721049e-02
3.335788290873389905e-02
5.014722702337794796e-02
2.042470578078168023e-02
3.244511436308476771e-02
3.535880417901440809e-03
2.100542178029371140e-02
-6.190929595499050642e-03
-4.760490105247754122e-03
-3.177415733899402028e-03
-8.499957530390206406e-03
2.936950646630540063e-02
3.028887208085435934e-02
1.862494722899663002e-03
-4.462113100802204122e-04
-3.949137921444398347e-03
5.763001078429655366e-03
1.894414081318906984e-03
-2.798842817549676999e-03
9.537373508331347532e-04
2.648797497354811025e-03
-1.291999191913396905e-03
6.023768336311796645e-04
