# milady test
 # 
 # LAMMPS SNAP coefficients for W
 
 1 56
 W 0.5 1
 0.0
1.365464675631316953e-02
6.066234326117327796e-02
2.789911803160298187e-01
3.396519312165815346e-02
5.396046672852992110e-01
4.157872208120923230e-02
1.809027920893215013e-01
3.784888511954540707e-02
9.915407004809546898e-02
2.023157368288120983e-01
8.292599878628775789e-02
2.853118555608611870e-02
-2.440841895158378863e-02
1.375211033027065946e-02
3.189212154618242812e-02
9.396580011865275986e-03
9.330808313622085404e-02
4.635064174756661770e-03
-1.487408000869083931e-02
-8.380170422015692511e-03
-9.403330173652253710e-03
1.538976836358036055e-03
-2.249076424379881090e-03
6.145263236533828055e-02
5.146924570019698747e-02
5.042770076023204984e-02
2.809572915769171023e-02
1.540323163062851108e-04
-5.912773564022581751e-03
2.589996508848841153e-02
-1.463512177516016963e-02
1.004728357982366017e-02
-1.017805058533382927e-02
1.098987338409205053e-02
4.894953659780400257e-02
2.438690424700588888e-02
3.010050069609764012e-02
4.597667695989599013e-03
1.823725422900389012e-02
1.133855430891859972e-03
-1.014367871295912982e-03
-2.539629759273881026e-03
-7.269853925737645994e-03
1.611545930886812070e-02
2.609241417015387837e-02
-7.213617351331247374e-04
-5.774370161086839204e-04
1.615215258309439950e-03
9.921944009708250078e-03
4.255024949126787193e-03
-2.072457285065166122e-03
5.770713248017773217e-03
2.574301165187059971e-03
-2.689842356107279963e-03
7.437036471279884209e-04
