# milady test
 # 
 # LAMMPS SNAP coefficients for W
 
 1 56
 W 0.5 1
 0.0
1.570846324910899969e-02
4.855112395934010200e-02
2.505522631701320724e-01
2.983650679998662084e-02
4.884509496388911853e-01
4.518071089687276248e-02
1.635905241950456890e-01
3.713212895575507266e-02
8.628496343095190535e-02
1.997419998401007979e-01
8.513688126071168594e-02
3.212139934903227717e-02
-1.980063270448456994e-02
1.281900343051852950e-02
3.448079066776667950e-02
1.014045405538032026e-02
9.547412943710931188e-02
9.282230056377759053e-03
-7.536712466460981918e-03
-9.863102206372008351e-03
-6.280191108882796081e-03
2.177762040661502130e-03
-3.399634694286445945e-03
6.818369544363650503e-02
5.716362361085788185e-02
5.444328344734777891e-02
3.007532231817486995e-02
-4.535277014569850094e-04
-3.454654756554040914e-03
2.926499482392075011e-02
-1.453384300064975050e-02
1.080312781183432984e-02
-1.160578640623417986e-02
2.278236097654947126e-02
5.450287029603664846e-02
2.148021240435653983e-02
3.164418534642104291e-02
6.401658818345227694e-03
1.821230785813108058e-02
2.556641478394977834e-03
-4.907174090188412552e-04
-3.001708227574396027e-03
-9.090654440870329922e-03
2.629076204375764905e-02
3.422372935846129671e-02
-9.496526335433380650e-05
6.549711571590816073e-04
5.491723257425376592e-04
1.070630075169932971e-02
6.118436413456135314e-03
-2.334750998075508111e-03
7.645586822963394702e-03
3.877110907772735038e-03
-2.432057279261567052e-03
1.246086988054285073e-03
