# milady test
 # 
 # LAMMPS SNAP coefficients for W
 
 1 56
 W 0.5 1
 0.0
1.658931934701874875e-02
4.961668825900762692e-02
3.173752766739749154e-01
3.288290710446765269e-02
5.255148135172715840e-01
4.973124353066964848e-02
1.747161309768988091e-01
3.690692115996022787e-02
1.127491578779886011e-01
2.178186898911302904e-01
1.023995997605284952e-01
4.196243493736880048e-02
-1.427333639715239015e-02
1.328597223195985069e-02
5.235828660361652176e-02
2.854097211637586853e-02
9.929742492873765147e-02
1.868194770482936931e-02
-4.359255453852503570e-03
-6.884755088763139415e-03
-7.162021936459775362e-03
2.697944934523583815e-03
-2.757956475461010182e-03
7.721520715835938908e-02
5.883905221837298916e-02
5.687537992367325962e-02
3.186260430189390147e-02
4.533617658722973939e-03
-7.641455627785263133e-03
2.807162947874856929e-02
-2.071329398834460128e-02
1.148156674152104977e-02
-1.131733500671494932e-02
2.591178165661778970e-02
5.002916533899722656e-02
2.288942157331847957e-02
3.147245972637077727e-02
3.817420261785511859e-03
1.927467203685931038e-02
-3.830335639107125979e-03
-2.710448515968231099e-03
-2.742584872204357083e-03
-7.876690794292956488e-03
2.406106519250105977e-02
2.768237948071011062e-02
8.643902082093868344e-04
-4.549939594714474955e-04
-2.004375395260213095e-03
6.765759583717709247e-03
2.597314452208968061e-03
-2.564644327856386175e-03
4.018539622827981689e-03
2.584236153517827095e-03
-1.702857303723318960e-03
7.629626854066817732e-04
