# milady test
 # 
 # LAMMPS SNAP coefficients for W
 
 1 56
 W 0.5 1
 0.0
1.619617079858718875e-02
5.012374961768979731e-02
3.229173968132724726e-01
3.396955152904582859e-02
5.271473066284290132e-01
4.453024324007247292e-02
1.734913186384088868e-01
3.676194328970529279e-02
1.081412191751321000e-01
2.160116462071060006e-01
9.770226830265102413e-02
4.068897175928849752e-02
-1.448546455891360982e-02
1.292870043488159038e-02
5.122380179497137281e-02
2.475671667986304933e-02
9.757363752239647803e-02
1.851971367292296056e-02
-4.183106796393824822e-03
-5.601791133682174767e-03
-7.023803426829341306e-03
2.683144843025466863e-03
-3.392258089381483977e-03
7.712734597405723758e-02
6.067598989111423063e-02
5.636343679461208733e-02
3.207582270878606145e-02
4.436471733205951673e-03
-3.205119241825774012e-03
2.793607861502760137e-02
-1.604692480758658849e-02
1.119315694366270972e-02
-1.161130647546975043e-02
2.462449601069462146e-02
4.916971856738860253e-02
2.057769537159101145e-02
3.131796302923110786e-02
5.988541455099304599e-03
1.871232644644134011e-02
-8.158573120190769357e-04
-1.227096838607250051e-03
-2.822109788474324189e-03
-7.915156464137651504e-03
2.324738704574944026e-02
2.661273280441325134e-02
6.460847092992771934e-04
8.186028107321635661e-05
-1.136520391631819010e-03
8.181660795546968901e-03
2.746238698957043090e-03
-2.344419659966067836e-03
4.162436341121772583e-03
3.224710867571790873e-03
-1.753631002624377998e-03
7.841850752441092975e-04
