# milady test
 # 
 # LAMMPS SNAP coefficients for W
 
 1 56
 W 0.5 1
 0.0
1.739297659995575965e-02
4.758165529817440231e-02
2.966257177536795742e-01
3.226100941879798956e-02
5.032700655609104734e-01
5.149640996098091283e-02
1.726157847148367119e-01
3.622008100075242709e-02
1.121390212851098023e-01
2.139111679202500005e-01
1.041042301924491043e-01
4.293351907289875979e-02
-1.378410360435040026e-02
1.274721050787886931e-02
5.386101702048500667e-02
3.128007683766084734e-02
1.037287987447198939e-01
2.019589360743917136e-02
-1.329408526796201084e-03
-8.219469984135644586e-03
-5.925849846930238141e-03
3.642992215807056965e-03
-2.642443469706489811e-03
7.784893114782812096e-02
5.699750913487224013e-02
6.023329069901294658e-02
3.245509930737666693e-02
5.576049712624353213e-03
-1.117434499728534036e-02
3.075199456116102861e-02
-2.482808635881600043e-02
1.242433444890364037e-02
-1.116272562480752004e-02
2.657558502771703926e-02
5.079084690986639811e-02
2.444717979755272122e-02
3.275810814229428158e-02
1.625455800047360001e-03
2.046248041928465031e-02
-5.827828764483476698e-03
-5.104220358197159024e-03
-2.467712697889673946e-03
-8.394934679507998210e-03
2.590609741446187053e-02
2.966614638068644852e-02
1.755572480025918919e-03
-1.202336571060533960e-03
-3.116605371977158867e-03
5.331629993066897000e-03
2.366975265894106107e-03
-2.891413583805485955e-03
2.619121211934443815e-03
1.803592831959979987e-03
-2.017760967658626791e-03
7.390438978867042152e-04
