# milady test
 # 
 # LAMMPS SNAP coefficients for W
 
 1 56
 W 0.5 1
 0.0
1.053012678649905068e-02
7.510365417643839747e-02
2.390354776071527965e-01
3.376609849882444836e-02
5.385892393224651631e-01
3.561063160810917783e-02
1.749649738840063917e-01
3.913490593332567824e-02
7.391556455733157283e-02
1.709937189363203991e-01
5.332430734520667709e-02
7.398070196932310383e-03
-3.700817895391030066e-02
1.415400087310172972e-02
1.012949927280173967e-02
-1.199790695207363957e-02
8.083199090934106712e-02
-1.457157329185890075e-02
-2.762652714431454090e-02
-1.145022822827792067e-02
-1.184583334783064976e-02
-1.607070972629854106e-05
-1.827867212214006947e-03
4.457736027825910663e-02
4.555816473960006691e-02
4.441082199190941882e-02
2.458726635062713148e-02
-5.745270620374547110e-03
-6.680157652164842030e-03
2.482905463641017080e-02
-8.850851755986488545e-03
8.431296280246601549e-03
-9.377376719777980041e-03
-4.993185472917104593e-03
4.942815218270187050e-02
2.541291556137856983e-02
2.776315556457172040e-02
5.263082419533549050e-03
1.746115308434796967e-02
5.924540542383512076e-03
4.098061300709145149e-04
-1.808668500641611105e-03
-7.243838388360068770e-03
7.649891043001001006e-03
2.757438042411453072e-02
-2.651740845924413937e-03
-1.179586243988534067e-03
5.102556405759590269e-03
1.415116279328645921e-02
7.028557908483278570e-03
-1.714948891731474028e-03
7.825053342988733118e-03
2.530517678880565835e-03
-4.134420119125459259e-03
1.058877346080316917e-03
