# milady test
 # 
 # LAMMPS SNAP coefficients for W
 
 1 56
 W 0.5 1
 0.0
1.322629788236196965e-02
5.909449499582242193e-02
2.278247364402098130e-01
3.135042189979536653e-02
4.995135625222389963e-01
3.660900145403638700e-02
1.752774614847258106e-01
3.698682542270779333e-02
8.291425024737814065e-02
1.869372579551968061e-01
7.347856338873148818e-02
2.367702526185367848e-02
-2.619403030150554978e-02
1.310030419828222062e-02
2.173199861258583859e-02
-3.628246830070098170e-04
9.506349578018220836e-02
2.054120675342259103e-03
-1.452416849786178007e-02
-1.092034263601836946e-02
-8.237353908565114846e-03
1.258125666754400952e-03
-2.543617038895662052e-03
5.773072445063356928e-02
5.085732826719312205e-02
5.176409887538999804e-02
2.812682789295253144e-02
-1.259686970389493899e-03
-4.987490202581122689e-03
2.848373964682959086e-02
-1.187940869057417005e-02
1.068730431470431980e-02
-9.961858849858951093e-03
9.564633167448058360e-03
5.179562059741409097e-02
2.319835698677500876e-02
3.068874567188948840e-02
5.519391142223675772e-03
1.821408875049835077e-02
3.785207854546147888e-03
-5.757476031912067693e-04
-2.903655403455052131e-03
-7.753316489196498962e-03
1.823064178028279900e-02
3.163078938742096974e-02
-1.059353759155966029e-03
1.412631688311808125e-04
1.499017188392653965e-03
1.109126769098160020e-02
5.689118931425179992e-03
-2.051284248692442080e-03
7.123151614701957179e-03
3.280595748197136924e-03
-2.462556962535362038e-03
1.155125463490836108e-03
