# milady test
 # 
 # LAMMPS SNAP coefficients for W
 
 1 56
 W 0.5 1
 0.0
1.296690596594280917e-02
6.148108750963524743e-02
2.298833069526720063e-01
3.120914680304864158e-02
5.047502425955519012e-01
3.614020184436839145e-02
1.757289867971429942e-01
3.671954864974053684e-02
8.573443548922481117e-02
1.871338321533438098e-01
7.532508101251693400e-02
2.459877859213644921e-02
-2.539008623652882005e-02
1.372812521587205015e-02
2.284711010437362119e-02
-7.762105447584773110e-04
9.402111547109025247e-02
1.459525642817178104e-03
-1.535523327198180972e-02
-1.067830726019902005e-02
-8.863378194873289262e-03
1.327782888397271988e-03
-2.184180493099375110e-03
5.620615036955411287e-02
4.953407724400112760e-02
5.226568616689641206e-02
2.912043276880059081e-02
-1.316260802364604965e-03
-6.076160546746783853e-03
2.768677316397131008e-02
-1.271395690991648959e-02
1.058323596763617938e-02
-9.763509010376869579e-03
8.086006940231486168e-03
5.063990289210632684e-02
2.474580793763372921e-02
3.065775972391265869e-02
5.100901518983382010e-03
1.761584075804431895e-02
2.907684802177891176e-03
-6.711536097387810207e-04
-2.965705511455530175e-03
-7.497055537312974360e-03
1.690091832447961073e-02
3.070885954726778125e-02
-1.032223280394712955e-03
-3.665657517942789279e-05
1.517021619319258979e-03
1.027420208571011920e-02
5.606674678082339269e-03
-2.019781280981194915e-03
8.195717478292084690e-03
2.858871242530459933e-03
-2.903453231089481168e-03
1.314474461975134950e-03
