# milady test
 # 
 # LAMMPS SNAP coefficients for W
 
 1 56
 W 0.5 1
 0.0
8.945941954820672837e-03
7.609003494315114136e-02
1.592470105486692988e-01
2.531029216792607048e-02
4.931182133145596835e-01
3.906947436444546673e-02
1.789974811981437097e-01
3.606028294087101210e-02
6.676927847865063437e-02
1.705228898332075971e-01
5.180858303803787673e-02
1.882285563757502000e-02
-3.514329176111564285e-02
1.315471280310873993e-02
-3.278998543909816040e-03
-1.298237380165542972e-02
8.567628093176560267e-02
-6.000394133195904867e-03
-2.412186226730208063e-02
-1.047121702983339064e-02
-7.807535990836726031e-03
-2.226728567965436105e-04
-9.521202204069711961e-04
3.404679827210997656e-02
4.842666013111247142e-02
4.576535898590088081e-02
2.938488135133189919e-02
-7.949271986983292779e-03
-1.435739592410244020e-03
2.891177476013684008e-02
-4.587662363362456606e-03
1.007510997350868041e-02
-7.604034224696742950e-03
-1.068418978143763007e-02
5.604933882535983319e-02
2.501986207264254164e-02
3.016015129453704022e-02
7.410521243824571419e-03
1.654910980910600030e-02
9.234327135149940358e-03
1.105523140990897091e-03
-2.418665757666701045e-03
-6.287191272761034379e-03
1.029100432288555973e-02
3.877976973719528264e-02
-2.741432641594445784e-03
-3.075289247351786770e-04
4.820140162921496274e-03
1.241309583573318998e-02
7.886622915277224921e-03
-1.359932090659251918e-03
1.265365487342036931e-02
3.011751285696597901e-03
-3.829704979919217999e-03
2.107998252252551996e-03
