# milady test
 # 
 # LAMMPS SNAP coefficients for W
 
 1 56
 W 0.5 1
 0.0
1.593211713570394025e-02
5.163225450656661747e-02
3.050059376174215076e-01
3.423226706381669870e-02
5.229199388937212367e-01
4.513505608391798346e-02
1.803541013405715876e-01
3.735465445724588107e-02
1.068156721872967063e-01
2.131689242007520080e-01
9.631661191718761394e-02
3.952064630497924280e-02
-1.697086279032235939e-02
1.262060848534266033e-02
4.656270972672160724e-02
2.267114328925266126e-02
9.941732242135230269e-02
1.782814561111431897e-02
-6.160199828493347594e-03
-6.713164620241282576e-03
-6.289446977440819875e-03
1.987949407083037124e-03
-3.198482153687621111e-03
7.336365384560560032e-02
5.705413876915971239e-02
5.431612160393207989e-02
3.076879015854152091e-02
3.511933100200300816e-03
-3.918794278697190075e-03
2.856180777185134828e-02
-1.700115293802113847e-02
1.098750717627997031e-02
-1.109719706528400004e-02
2.203632155237112908e-02
4.959914816478289828e-02
2.165686972397937171e-02
3.118468503953584006e-02
5.121136834313935737e-03
1.944441828949748999e-02
-1.074947706650071066e-03
-1.744708688935392004e-03
-3.020855440933611913e-03
-7.918750431028215298e-03
2.284362301628978936e-02
2.797723473721035886e-02
4.052508087544517122e-04
2.033307583465676909e-04
-8.517925664989003942e-04
8.612167861996387896e-03
3.411637724472920807e-03
-2.380072477337625159e-03
4.262035395336927213e-03
3.135229179109564213e-03
-1.638134624821617046e-03
7.372952816422639888e-04
