# milady test
 # 
 # LAMMPS SNAP coefficients for W
 
 1 56
 W 0.5 1
 0.0
1.693981052618967129e-02
4.800140825523917243e-02
3.477279586570469205e-01
3.431282205192091872e-02
5.387751705252687984e-01
5.322738079045388759e-02
1.797522300988287913e-01
3.757746042268322872e-02
1.168604297124011954e-01
2.257592179282706113e-01
1.060859008875505022e-01
4.642975474657942692e-02
-1.279464369453854958e-02
1.260502937478259929e-02
5.873408429049285784e-02
3.510982402457536039e-02
9.978073197301602637e-02
2.407912756334684018e-02
-2.729446800349478053e-03
-4.408066697025628602e-03
-5.767248270606192828e-03
2.627979365705045145e-03
-3.192333881339771019e-03
8.055779559554457347e-02
6.200776185004427954e-02
5.581328452252287686e-02
3.209966603775171734e-02
5.085997165530837388e-03
-3.830886854303720140e-03
2.771499082305750941e-02
-1.982644650820942003e-02
1.093394908624597921e-02
-1.155453128535354965e-02
2.891087746635392919e-02
4.994772462291852122e-02
2.139690684027925963e-02
3.116750379807461946e-02
4.921259873111580307e-03
1.949492236859816027e-02
-3.634847867500554108e-03
-2.457700167268817015e-03
-2.957200373458479959e-03
-7.859304703375924461e-03
2.534411551680796834e-02
2.705327509118241047e-02
8.982158155827410506e-04
-8.835494703065410738e-05
-1.743759633696425953e-03
7.137771434592780385e-03
2.222234546282259027e-03
-2.402896124104519915e-03
3.057445937359808043e-03
2.955280396993463943e-03
-1.658955650474607923e-03
5.521047259589573208e-04
