# milady test
 # 
 # LAMMPS SNAP coefficients for W
 
 1 56
 W 0.5 1
 0.0
1.718465912774044119e-02
4.688934283866461050e-02
3.226441118387394780e-01
3.334928900364331900e-02
5.197124906257131194e-01
5.385531057791898696e-02
1.772882104073842946e-01
3.665925302547128062e-02
1.141250014307132049e-01
2.208428707520924128e-01
1.056608051584412983e-01
4.601874745606303330e-02
-1.214317264010946959e-02
1.255705910466600045e-02
5.693864373161908882e-02
3.248936367943722203e-02
1.016067274875867982e-01
2.395656715973661088e-02
-1.445158912799802964e-03
-5.527320265369739700e-03
-5.512628650021757226e-03
2.905270434144082824e-03
-3.145976282028450921e-03
7.972777621756538258e-02
6.034747953114098090e-02
5.732333037516253865e-02
3.281211609887371705e-02
5.267915803961852571e-03
-5.016030946410707930e-03
2.881695207988236099e-02
-2.087652716651267060e-02
1.133617827893622018e-02
-1.145503146115384001e-02
2.843683206192684082e-02
5.050678122327177666e-02
2.186400888083158897e-02
3.213057707550528996e-02
4.323383257258062162e-03
1.957437222099809096e-02
-4.032941957920234410e-03
-3.034832774457680172e-03
-3.044808884653193992e-03
-8.104818139652081310e-03
2.633422164587738076e-02
2.916128908236120115e-02
1.476876745238886023e-03
-1.906322945816399045e-05
-2.199649552864369872e-03
6.472244972918261841e-03
2.410926094421533827e-03
-2.547564802267004991e-03
3.999090488459328824e-03
2.738464500141194868e-03
-1.787077209166868918e-03
7.631354838696369214e-04
