# milady test
 # 
 # LAMMPS SNAP coefficients for W
 
 1 56
 W 0.5 1
 0.0
9.331532751018568536e-03
8.265650735051494058e-02
1.886064987394915904e-01
2.560684635232685080e-02
4.955306847076640930e-01
2.513592405146446163e-02
1.572095024141126896e-01
3.627889817536812667e-02
5.360119301798760283e-02
1.386848822354188882e-01
2.662409436826786852e-02
-6.418455913358850351e-04
-4.251593930940485849e-02
1.367680185139549982e-02
-6.303256907872704234e-03
-2.438841777466123004e-02
7.087188337146982375e-02
-2.159774842183396007e-02
-3.347789226891972197e-02
-1.347860393248503062e-02
-1.134700271870272073e-02
-1.628987744496838020e-03
-2.336556613747653010e-03
3.444348631535352340e-02
4.584366600310298828e-02
4.508629703977189151e-02
2.910492460453905153e-02
-8.655595753992693236e-03
-9.049490672802938673e-03
2.883260747459271897e-02
-3.974326082068303789e-03
1.042958889088604034e-02
-9.286169123485454868e-03
-1.377810835895068933e-02
5.410522226587018146e-02
2.937501083786269937e-02
2.841218353506733130e-02
6.287449350918305341e-03
1.672246088945127107e-02
1.015035647225616920e-02
2.115167784239715965e-03
-1.301255767171827010e-03
-7.429803159460873774e-03
4.948168727717087295e-03
3.478473814648241902e-02
-3.553994223260636964e-03
-1.623350837313964007e-03
5.549365228145548140e-03
1.532529656856687975e-02
9.265495245459026696e-03
-1.872053495994647088e-03
1.146991648933885950e-02
2.444543949686072814e-03
-4.753316750673995672e-03
2.137117912647382156e-03
