# milady test
 # 
 # LAMMPS SNAP coefficients for W
 
 1 56
 W 0.5 1
 0.0
8.512708584289136945e-03
7.813263632242202494e-02
1.732532910474731958e-01
2.653555611533982977e-02
5.019386533829213182e-01
3.698446176281464798e-02
1.858888550064455025e-01
3.709422773357171771e-02
7.130512238938181702e-02
1.684535141583629880e-01
5.640407804310498124e-02
1.619784927239991887e-02
-3.459600640385315090e-02
1.435961384565168954e-02
-1.093460034184891988e-05
-1.236117077080084968e-02
8.835550146493288681e-02
-8.308123095865763835e-03
-2.496040401994953015e-02
-1.161242499590178952e-02
-9.375065649794289691e-03
-5.610390107804175130e-04
-1.569541263099493995e-04
3.348902399176328232e-02
4.578111156598704823e-02
4.599931148164793787e-02
2.820796669879391955e-02
-7.287693250088458224e-03
-5.236062586255044171e-03
2.729117941728444879e-02
-7.759874473657238370e-03
9.830116689230436466e-03
-6.859734005525364164e-03
-1.092726056868214939e-02
5.426008170915645745e-02
2.559059045226901030e-02
2.907494535029880867e-02
5.381865482970683845e-03
1.612629425758162899e-02
6.475248211687168083e-03
-1.401633518456207872e-04
-3.042377932266083097e-03
-6.072201067082561021e-03
9.334479651006175743e-03
3.773683543914180955e-02
-3.040266283955303950e-03
-6.049396378550939146e-04
4.019182608932997391e-03
1.192485851759625057e-02
7.816610072086491168e-03
-1.311539053590978898e-03
1.180597419897170923e-02
2.922453279148127126e-03
-3.885924255270969963e-03
2.020770380116998065e-03
