# milady test
 # 
 # LAMMPS SNAP coefficients for W
 
 1 56
 W 0.5 1
 0.0
1.289537245376293044e-02
6.465111787686775302e-02
1.909217232853344937e-01
2.706852420880343987e-02
4.768625554420952151e-01
3.119941792674134004e-02
1.517500179147887873e-01
3.519416301322587232e-02
6.653896288802071957e-02
1.676527664254955918e-01
5.455556340178138036e-02
1.785533628937906875e-02
-2.945129652999916095e-02
1.336724121984150977e-02
1.090880326258360060e-02
-1.314637384289252947e-02
8.111877633018864386e-02
-7.005307088177556082e-03
-1.944217471001766923e-02
-1.234957148672662965e-02
-8.466797846002051264e-03
9.504773774034608325e-04
-3.225876513305192973e-03
4.984092569343381851e-02
5.038389055097947794e-02
5.295630632506660718e-02
3.144218291234734952e-02
-4.575643049451148803e-03
-6.178563466864044583e-03
3.014242298673336026e-02
-8.176501186166335033e-03
1.104361481430447996e-02
-1.103164740850645989e-02
4.375865741183607160e-03
5.357088255519124737e-02
2.677857868256243098e-02
3.082932986689206067e-02
7.094571222582765624e-03
1.684825543916421142e-02
7.453918295176553688e-03
1.583684237810092932e-03
-2.146233711689273915e-03
-8.433553104446850357e-03
1.595676862716818856e-02
3.405813293885936316e-02
-1.811942183897366065e-03
-4.945781014714933921e-04
2.632294842999208934e-03
1.208078074760223983e-02
7.804264963980427593e-03
-2.140085312383758088e-03
1.205098350583736974e-02
2.521598990651872929e-03
-4.125119407064725685e-03
2.181597621299379963e-03
