# milady test
 # 
 # LAMMPS SNAP coefficients for W
 
 1 56
 W 0.5 1
 0.0
1.503893832314296027e-02
5.563549720831104106e-02
3.277106742341521772e-01
3.627807356858488153e-02
5.585319657514833391e-01
4.438355642642569793e-02
1.862371063936419935e-01
3.846092732536320752e-02
1.128402846988200980e-01
2.203010782242764976e-01
9.605197998389991554e-02
3.777736724386152739e-02
-1.934078748304228837e-02
1.347558262881625064e-02
4.575237248389033701e-02
2.331462616979829844e-02
9.569993498038843749e-02
1.387736072154236930e-02
-9.926847063081556399e-03
-5.176917452699279602e-03
-8.368336332009229661e-03
1.997421546156439177e-03
-2.754652455306150216e-03
7.040817368883722782e-02
5.649863527667770696e-02
5.078796347323039778e-02
2.886620542912531062e-02
2.533810820194389024e-03
-3.743178203589579006e-03
2.534485808269027959e-02
-1.605071184909115031e-02
9.813058916713388730e-03
-1.080560378241279991e-02
1.867275071910285897e-02
4.793638479484747805e-02
2.245879429817264003e-02
3.024647339908302993e-02
4.642676742404802659e-03
1.848167360897285880e-02
-4.585124936066429222e-04
-1.437396285057443001e-03
-2.660724000335706885e-03
-7.384889199499033996e-03
1.879294238984810864e-02
2.339754173349331903e-02
2.486785422727011080e-05
-6.102458177658573457e-04
7.334331245377051500e-04
9.164907378542377914e-03
2.941200461783755049e-03
-2.062038606997134826e-03
3.561529383047345922e-03
2.754510512077951168e-03
-2.362493951630816047e-03
3.676376850792750783e-04
