# milady test
 # 
 # LAMMPS SNAP coefficients for W
 
 1 56
 W 0.5 1
 0.0
1.583836344305614846e-02
5.118730307255087847e-02
3.129045733623170844e-01
3.367830974630001140e-02
5.304188143066301819e-01
4.463297576187018334e-02
1.743801516534010942e-01
3.709281645949098760e-02
1.064739985890538060e-01
2.137507957815013016e-01
9.489978667863455120e-02
3.792058726637825838e-02
-1.660208072412416858e-02
1.323292337290550048e-02
4.671577692572592005e-02
2.111320265068827168e-02
9.645238330491132106e-02
1.488203575658533957e-02
-6.641226256171126052e-03
-6.667338187214252865e-03
-7.677284050049051206e-03
2.268972288078028188e-03
-3.148404178337449021e-03
7.427006478774290932e-02
5.838100307223253321e-02
5.528455367580543262e-02
3.082550245892694968e-02
3.519131631391662907e-03
-4.699017861617131586e-03
2.755658649139942906e-02
-1.642191866730527069e-02
1.105185031416132044e-02
-1.143604771990757926e-02
2.316674105996386832e-02
4.943899536412987156e-02
2.177095986532254918e-02
3.100420671595218933e-02
5.479408419429399046e-03
1.863766882102880010e-02
-6.327161454709323563e-04
-1.140722993220572024e-03
-2.746601031466885945e-03
-7.817485680312041829e-03
2.237910476454623918e-02
2.647471018916683003e-02
3.031583335339552154e-04
-5.039008814850323703e-05
-7.818432988056581157e-04
8.314878739928768803e-03
2.983394597135050064e-03
-2.325013929226669041e-03
4.734977070979685260e-03
2.953681080142947935e-03
-1.901855254042274018e-03
8.200576070419296482e-04
