# milady test
 # 
 # LAMMPS SNAP coefficients for W
 
 1 56
 W 0.5 1
 0.0
1.315110132978490956e-02
6.296327470704388141e-02
2.608561119316116783e-01
2.919146731083048854e-02
5.403897017078714837e-01
5.883462946033945346e-02
1.637743012095609074e-01
3.685819575596140790e-02
8.990472004777194659e-02
2.020380039544323880e-01
7.202874958110398740e-02
2.924186424056699971e-02
-2.767931496016397958e-02
1.391402184145535022e-02
2.653211293632147874e-02
7.351511702824713168e-03
8.288629379631243244e-02
9.816528192597602509e-04
-1.953255639223315868e-02
-8.375560656219548095e-03
-9.555827324281635643e-03
1.129294707489388993e-03
-1.779787018565571078e-03
5.610272505966167750e-02
5.384304571773920745e-02
4.988435758332610687e-02
3.086696876947565837e-02
-3.665672626752187069e-03
-5.752040367083308126e-03
2.485262781654621125e-02
-1.417470495314629084e-02
9.976398299311850515e-03
-1.049648487087614934e-02
8.700850619222856575e-03
5.287448874408740007e-02
2.462092785277527132e-02
3.063167423715012008e-02
6.686583038430025938e-03
1.725628542832586057e-02
1.584228967339707927e-03
2.048086184755563131e-04
-1.968104184360025977e-03
-7.268192009130980402e-03
1.663629231994316962e-02
3.120061235627126853e-02
-3.952214498481460003e-04
-6.347024381651855673e-04
3.113001291248011174e-03
9.173751663139356749e-03
5.506599959481356388e-03
-2.161439312560825988e-03
9.961450258344321795e-03
2.522181679464538962e-03
-3.632334146429785915e-03
1.619365260133647910e-03
