# milady test
 # 
 # LAMMPS SNAP coefficients for W
 
 1 56
 W 0.5 1
 0.0
1.566399191330571095e-02
5.039229176810459954e-02
2.323872478897801019e-01
3.041061972809838004e-02
4.735885347711232818e-01
4.162818576708295776e-02
1.688301897216537006e-01
3.523487740402349300e-02
9.256021381783798019e-02
1.977137710152717942e-01
8.944638055735951165e-02
3.441094509874018104e-02
-1.715264796438749004e-02
1.305528824119188067e-02
3.581852417462375732e-02
1.075532179348451939e-02
1.007492513026324032e-01
1.302310843207401918e-02
-5.483243591656299099e-03
-1.067505267556170985e-02
-6.679808295244893390e-03
2.544059971789858210e-03
-3.098015139344600932e-03
6.876284238011019789e-02
5.415530162734556036e-02
5.679275534971976735e-02
3.254953497696855269e-02
2.592817877861992165e-03
-5.537907022631590945e-03
3.020125707745037122e-02
-1.604975998778514906e-02
1.189583143310365965e-02
-1.084458307281246925e-02
1.847470708870057113e-02
5.158958999583086735e-02
2.119555717923287882e-02
3.266701997136053220e-02
5.100403300048603900e-03
1.852052881506196028e-02
3.445870441177965871e-04
-1.602286061599185029e-03
-3.281303825363957039e-03
-8.455148560394074031e-03
2.427010268347748120e-02
3.409941445277529792e-02
5.809945992482773436e-04
5.181464061880525218e-04
-1.411137026694625051e-03
8.810369958089640796e-03
5.199764331441730780e-03
-2.579135778035646087e-03
7.141286845140427421e-03
3.479738529193684982e-03
-1.539799565921165948e-03
1.412341729936122947e-03
