# milady test
 # 
 # LAMMPS SNAP coefficients for W
 
 1 56
 W 0.5 1
 0.0
1.621055179258549042e-02
5.006681074022675815e-02
2.889363713595908267e-01
3.374293466112617684e-02
5.048349589721349284e-01
4.288491092040284253e-02
1.754069406844492862e-01
3.644795318693536124e-02
1.014682126505911941e-01
2.078137703278442883e-01
9.523341820966996218e-02
3.875818217704934260e-02
-1.529911470621760083e-02
1.253724125788669048e-02
4.570455313972320716e-02
1.948480668900761173e-02
1.002536541894813032e-01
1.849416101772740142e-02
-4.387772532718534069e-03
-7.415527569782139755e-03
-5.900298371276445353e-03
2.298896192834715135e-03
-3.669668056547115143e-03
7.479955884501393593e-02
5.751551034914551691e-02
5.593092513456444231e-02
3.206534140156432761e-02
3.969615578622089601e-03
-2.985622738989650998e-03
2.949389132066624133e-02
-1.592030293448258929e-02
1.131948944101524024e-02
-1.134737003666986058e-02
2.292245891945968173e-02
4.979431716247627315e-02
2.089462219750988156e-02
3.186723631178282196e-02
5.608560778027418814e-03
1.919134745972161937e-02
-2.201144548339001035e-04
-1.518538348308084030e-03
-3.186935283359781934e-03
-8.278798269784198860e-03
2.430389084325182067e-02
2.960338359706199060e-02
6.669449102975483212e-04
5.779032790211614812e-04
-1.101568220872802938e-03
8.796538058313208008e-03
3.869283518672341892e-03
-2.433377236014833134e-03
4.851605351612067740e-03
3.374130639854248936e-03
-1.603071306488971105e-03
9.427540640129794536e-04
