# milady test
 # 
 # LAMMPS SNAP coefficients for W
 
 1 56
 W 0.5 1
 0.0
1.593534175108933873e-02
5.257326346436089204e-02
3.246641146239184761e-01
3.553266827003109807e-02
5.428467925258111393e-01
4.559090436985017286e-02
1.847198519177639942e-01
3.739841215894348925e-02
1.154330386505074968e-01
2.206082106185162928e-01
1.005507149681490048e-01
4.135933902053984257e-02
-1.601987237119528035e-02
1.302862212072185971e-02
5.117923541975258339e-02
2.712135867450642113e-02
9.948856650705163729e-02
1.863110375661835086e-02
-5.892676904044553965e-03
-5.139791418628997244e-03
-7.368847013101725851e-03
2.474988697201668808e-03
-2.986596417264287141e-03
7.448559147660012425e-02
5.732705629464204811e-02
5.393870119135037167e-02
3.065501574175363841e-02
4.562216941186539310e-03
-4.401051146801421288e-03
2.698450613541485132e-02
-1.792465262164713927e-02
1.071993691118562977e-02
-1.097779115900487934e-02
2.137039548671473832e-02
4.781964004906837790e-02
2.208498138318118129e-02
3.113372176200654082e-02
4.389750417507345959e-03
1.896582267083836079e-02
-2.079703605968561807e-03
-2.208721600906488058e-03
-2.868226681357422935e-03
-7.522390239807885681e-03
2.097330321404193912e-02
2.485385522423666851e-02
7.603258820644692717e-04
-3.710844481871616862e-04
-8.469987321620929543e-04
7.672161098821267400e-03
2.289530085892916168e-03
-2.291790544191458102e-03
3.483674516939397076e-03
2.630226366655108016e-03
-1.967719981231950011e-03
5.137649599319810134e-04
