# milady test
 # 
 # LAMMPS SNAP coefficients for W
 
 1 56
 W 0.5 1
 0.0
1.570252484562108947e-02
5.161818491504417683e-02
2.996462147961783118e-01
3.449678024714077779e-02
5.232074776822459583e-01
4.433496741535897928e-02
1.798707492546363085e-01
3.741481130542841094e-02
1.038422441100727983e-01
2.112541543076610073e-01
9.394617443310579463e-02
3.727555336045990098e-02
-1.774550203222347022e-02
1.275040587641966018e-02
4.423602079857025249e-02
2.003873226149565853e-02
9.897431894530546448e-02
1.598630332015832031e-02
-6.786462596955790405e-03
-7.010616751664741630e-03
-6.681503790558027123e-03
1.958013828333389061e-03
-3.304450647836131971e-03
7.234523024784297873e-02
5.677236087825948685e-02
5.371480175260091861e-02
3.018884915067563887e-02
3.102624025932573804e-03
-3.203297656344735855e-03
2.814056607925069162e-02
-1.595975701341769901e-02
1.074643645376079960e-02
-1.107171827920300049e-02
2.136170217574754129e-02
4.964302840615702345e-02
2.111565897878570075e-02
3.116731672553016072e-02
5.317224063118201373e-03
1.903234147929066047e-02
-1.111448297415121029e-04
-1.508813210951657092e-03
-3.065372848996967148e-03
-8.024620432053708452e-03
2.278412648768345095e-02
2.809859575215629957e-02
2.968019680001932059e-04
2.650389164542826803e-04
-3.895511911901489155e-04
9.240085489255402129e-03
3.712724261179078944e-03
-2.288143782252186065e-03
4.255108833461598850e-03
3.317111776867193162e-03
-1.785727573185402978e-03
7.278318293305330311e-04
