# milady test
 # 
 # LAMMPS SNAP coefficients for W
 
 1 56
 W 0.5 1
 0.0
1.471240665463043051e-02
5.688740117055857831e-02
3.149547527960517845e-01
3.596793217457278785e-02
5.484626726588182066e-01
4.285517970991801345e-02
1.833143968377898003e-01
3.822191197230134785e-02
1.077954860911252977e-01
2.150636142965441089e-01
9.298482711705517711e-02
3.693271654191530168e-02
-1.945695319385171845e-02
1.348455062043642065e-02
4.293125951289752246e-02
1.914627776819166974e-02
9.462710196126995765e-02
1.308958334319026973e-02
-1.011735859053634022e-02
-5.586554728262652092e-03
-7.996351479186758482e-03
2.062611777757585984e-03
-2.883445004938923074e-03
6.884768087865479613e-02
5.605637215365123077e-02
5.175215701047573835e-02
2.942951406267767939e-02
2.231440941796301869e-03
-2.875809085393761944e-03
2.596086348686309914e-02
-1.466118905648442980e-02
9.953351055995901531e-03
-1.079434634748582984e-02
1.719216397124903942e-02
4.788552144931897125e-02
2.280929781761856928e-02
3.016127478318942137e-02
5.212150912520474577e-03
1.837528841304481020e-02
5.442919656779843240e-04
-9.991709418975466828e-04
-2.709211236190806060e-03
-7.421630538965801049e-03
1.855574117799725989e-02
2.419604793129192036e-02
-2.173045289584236983e-04
-4.519814301082378249e-04
9.678138550266793261e-04
9.448951300604073456e-03
3.345888448205435860e-03
-2.011067581729703967e-03
4.671865229418217802e-03
2.638154254924072063e-03
-2.597342590981439880e-03
5.520688927611594465e-04
