# milady test
 # 
 # LAMMPS SNAP coefficients for W
 
 1 56
 W 0.5 1
 0.0
1.387865265306885941e-02
6.009778854510928331e-02
2.840129487514420070e-01
3.265568949025352691e-02
5.416577460864511195e-01
4.406075175234228786e-02
1.788250555365757111e-01
3.789715316244340881e-02
1.010791192029329016e-01
2.034167736052192865e-01
8.450739151317611386e-02
2.867669783108517043e-02
-2.450546710229371122e-02
1.398364239813027973e-02
3.357201998716347752e-02
1.184387063209071077e-02
9.353248190007243390e-02
3.807409777292374009e-03
-1.512079308919020079e-02
-8.987838183071347742e-03
-9.807167309098009655e-03
1.580638420877910960e-03
-1.844168944531098930e-03
6.193373017937880975e-02
5.130214650959304123e-02
5.111203819458386144e-02
2.819044863087548022e-02
2.539130100753795089e-05
-8.462689411809810880e-03
2.573993907686656854e-02
-1.705766455214842089e-02
1.036759672111788044e-02
-1.017691413091830963e-02
1.243479309478581936e-02
4.968826711089178311e-02
2.531242080588679000e-02
3.011565455665194888e-02
3.901640168709211154e-03
1.834540742859043852e-02
-4.222156629081764132e-04
-1.563625568019346096e-03
-2.412114324936848186e-03
-7.283269353405341651e-03
1.678028622613288168e-02
2.657017397303478023e-02
-6.909564961678354988e-04
-7.895810994681395911e-04
1.115434011217295972e-03
9.204307071573436527e-03
4.164770721054353309e-03
-2.218361967063777872e-03
5.596618844873810922e-03
2.487359405717045214e-03
-2.584997601363436814e-03
7.559271951108892384e-04
