# milady test
 # 
 # LAMMPS SNAP coefficients for W
 
 1 56
 W 0.5 1
 0.0
1.836073010929483926e-02
4.150526131918758771e-02
3.295716829884975940e-01
3.286460038202598799e-02
5.166250624945211145e-01
6.332172336949422331e-02
1.750993123738741886e-01
3.693720583880685804e-02
1.184372514199593940e-01
2.256921074776624125e-01
1.122625248607014015e-01
4.734874782608024940e-02
-1.101634853185025006e-02
1.229945762887913949e-02
6.470855969552270770e-02
4.275259845897898259e-02
1.056361586232451993e-01
2.495222341183546064e-02
2.536759337707799201e-03
-6.002949212667543777e-03
-4.896433069448327680e-03
4.697204797270246313e-03
-2.689823429513793062e-03
8.367522708196901970e-02
6.157495911050785836e-02
6.085728808512962801e-02
3.219908434440098277e-02
6.598135787462180296e-03
-9.657611738031743331e-03
2.980678208049884065e-02
-2.786390602099086955e-02
1.173961477048253085e-02
-1.142589203486715083e-02
3.328518738316078168e-02
5.187189017570743854e-02
2.341599767585006084e-02
3.294863148017897897e-02
1.261821284732774894e-03
2.045061922164538928e-02
-7.793049463606659816e-03
-6.488951768168466083e-03
-2.567270119243039023e-03
-8.666820456456655886e-03
2.982210819729824020e-02
3.019145408802366079e-02
2.369954305961693986e-03
-1.411751336674250045e-03
-3.344379922784016922e-03
4.457477741969487206e-03
1.463892938564484002e-03
-2.757281224497476046e-03
1.044180111802354071e-03
1.691920741755476021e-03
-2.621394855159663983e-03
3.717389755537591780e-04
