# milady test
 # 
 # LAMMPS SNAP coefficients for W
 
 1 56
 W 0.5 1
 0.0
1.644332029160675002e-02
4.483100603922281213e-02
2.751074831451034153e-01
3.190214433151346979e-02
4.935521089183483867e-01
5.254732377629386247e-02
1.789096918366764044e-01
3.648207811854647931e-02
1.040049803366917963e-01
2.126803227467956026e-01
9.599597992412725600e-02
4.029090679182689705e-02
-1.711580061115055076e-02
1.253726446441221984e-02
4.549612556500864935e-02
2.333081052877833059e-02
1.026363024446406008e-01
1.843322806729950913e-02
-4.495947128738998766e-03
-8.783120825784720281e-03
-5.598807939677631629e-03
2.463333812905060816e-03
-2.931597082332371151e-03
7.431625105078853988e-02
5.581643081675188856e-02
5.618752346927639169e-02
3.192750349529659137e-02
3.865949891363414104e-03
-6.055415140364562611e-03
2.970419078385772016e-02
-1.993582670614275909e-02
1.168511825824557031e-02
-1.074658086594736973e-02
2.384035798852053925e-02
5.128425081022171261e-02
2.151665296353625148e-02
3.245293017957492226e-02
3.889756073598385055e-03
1.946551684276768071e-02
-2.551187775741248914e-03
-3.146466620918567103e-03
-3.294529927860335040e-03
-8.198423895533712979e-03
2.621450023258857162e-02
3.253474684559141267e-02
1.027901428423474983e-03
-6.024395731708472745e-05
-2.196351664478418935e-03
7.500496441249226987e-03
3.787001831614456027e-03
-2.571684865784914110e-03
4.664876732081199573e-03
2.959130457343508037e-03
-1.563528204050596958e-03
1.007917295026167009e-03
