# milady test
 # 
 # LAMMPS SNAP coefficients for W
 
 1 56
 W 0.5 1
 0.0
1.533794890326990040e-02
5.139455022880502766e-02
2.864776362595569115e-01
3.191346554637577992e-02
5.183082322167906764e-01
4.140679300252513712e-02
1.593057910095312113e-01
3.721145887923679729e-02
8.887613039717938423e-02
2.028577113073926907e-01
8.455991248166644381e-02
3.081280799002400830e-02
-1.890321099019117920e-02
1.360895516303461950e-02
3.763026118960294958e-02
9.768817304544118174e-03
8.951178347220363485e-02
6.344576443205608707e-03
-9.235696543511293100e-03
-8.151587686283892631e-03
-8.158348237013057780e-03
2.713080756078636857e-03
-3.523810939208150972e-03
7.092137284928366758e-02
5.962939798509744871e-02
5.570447188556296170e-02
3.039267695751239964e-02
3.322909197329276809e-04
-3.434932808155512912e-03
2.737499830574352880e-02
-1.306069000547627028e-02
1.027314498386362913e-02
-1.214843661996885087e-02
2.352164049935067877e-02
5.159333126555881721e-02
2.289832905241865127e-02
3.070203376233380035e-02
6.940638449747003370e-03
1.737111870976490099e-02
2.986695671695834952e-03
2.957746575474145254e-04
-2.398301080722641931e-03
-8.521181774479635873e-03
2.306058047285526949e-02
2.796155553333425081e-02
-5.034853784521009512e-04
-1.486339630374506054e-04
9.732283199761389281e-04
1.009960879835295963e-02
4.736033295874796621e-03
-2.085726582792323935e-03
7.317600717150797573e-03
2.941714392614078188e-03
-3.238467363643655200e-03
1.134339165877435102e-03
