# milady test
 # 
 # LAMMPS SNAP coefficients for W
 
 1 56
 W 0.5 1
 0.0
1.452909898988264011e-02
5.314466154104013212e-02
2.087689206732435132e-01
3.062952977560720949e-02
4.649065200760297834e-01
3.400227727949704098e-02
1.655921794724893870e-01
3.562636486282341058e-02
7.823619649169516466e-02
1.861682799458017901e-01
7.713798123471539425e-02
2.846434853045674840e-02
-2.120355918669672088e-02
1.285438409226145016e-02
2.514195149472849000e-02
-3.628101412466844104e-04
9.684840273841532898e-02
7.343583757791982691e-03
-8.599638701803656582e-03
-1.136290040742964948e-02
-6.422138471136609739e-03
2.190801763533430091e-03
-3.543273550213054800e-03
6.300956513681428561e-02
5.325024685194523766e-02
5.603792350008030693e-02
3.143187929064748809e-02
4.021269170554828132e-04
-2.920166130718119136e-03
3.096231312700723978e-02
-1.116374787646256042e-02
1.159124378813193926e-02
-1.081407168523338021e-02
1.454813726917638002e-02
5.217697319170967046e-02
2.151233665416787955e-02
3.212416155919826238e-02
6.452382555002925124e-03
1.805434998346334974e-02
4.696813764738302401e-03
-3.200395046433351931e-04
-3.137379003196813943e-03
-8.653478607451248195e-03
2.295596928981321130e-02
3.437852161553525687e-02
-2.848383690804214842e-04
6.657486051862282483e-04
2.333119999867321894e-04
1.087183528054997024e-02
6.285464150621090408e-03
-2.269075228465367022e-03
7.976148795236195216e-03
3.582313769289218863e-03
-2.301411158636205035e-03
1.555545508293010087e-03
