# milady test
 # 
 # LAMMPS SNAP coefficients for W
 
 1 56
 W 0.5 1
 0.0
1.494779141643954971e-02
5.454912915280356323e-02
3.063278292914691781e-01
3.353874926046122862e-02
5.367522978063720140e-01
4.199679788458215990e-02
1.707838117869422967e-01
3.805618385368481071e-02
9.860411249095207831e-02
2.083266821038053107e-01
8.858534972287455955e-02
3.233316692992981023e-02
-1.998975375397707074e-02
1.370972052373711086e-02
4.021738625770761300e-02
1.509997239591815039e-02
9.187612270605596820e-02
8.373668915644404825e-03
-1.048009596263304970e-02
-7.554441946109716893e-03
-8.540969009487135721e-03
2.302905498690826103e-03
-3.044565952832257050e-03
7.013430483787019831e-02
5.734486668611084303e-02
5.358783311757858714e-02
2.939418894501105023e-02
1.248577231029981017e-03
-4.467154969355378175e-03
2.645771129392420970e-02
-1.456614572076581071e-02
1.029112066707726925e-02
-1.144250771577154033e-02
2.041068654939491925e-02
4.981000041563878739e-02
2.320765200525485086e-02
2.995788267892829024e-02
5.743859500913245375e-03
1.809498821852786876e-02
1.277246480704437087e-03
-4.041892966139618015e-04
-2.396598379157067072e-03
-7.898689927628183005e-03
2.055323554251388060e-02
2.568069469593776966e-02
-6.977650800690446409e-04
-4.510252894303761763e-04
7.682205551358123330e-04
9.931586377462428561e-03
4.047923090509109034e-03
-2.119381585152638192e-03
5.387842692896203413e-03
2.809116355316395187e-03
-2.609457957031372909e-03
7.677640129294671656e-04
