# milady test
 # 
 # LAMMPS SNAP coefficients for W
 
 1 56
 W 0.5 1
 0.0
1.550312381278817937e-02
5.188932637633367206e-02
2.501447408500628855e-01
3.197580897319474841e-02
4.843383767885504065e-01
4.040600915908682672e-02
1.712462301234614903e-01
3.632186502089800040e-02
9.171135085739509640e-02
1.987425476972765059e-01
8.886192104682452686e-02
3.480795064324809784e-02
-1.799288058404567917e-02
1.268253089011849022e-02
3.658853001422954915e-02
1.201872171869403962e-02
9.963315912282026676e-02
1.424438342827430079e-02
-6.198647234638157699e-03
-9.477497601578403069e-03
-5.883525852446898352e-03
2.293909870127946050e-03
-3.472703735314108808e-03
6.920675830946756979e-02
5.545616031887218300e-02
5.545830930777177065e-02
3.183346790351004874e-02
2.042941781343828988e-03
-3.145068757699241019e-03
3.005312449660542048e-02
-1.449834606551373035e-02
1.137292807472485914e-02
-1.096424403768411944e-02
1.863597711182462049e-02
5.132233701940711740e-02
2.127118362842440880e-02
3.194923094615848003e-02
5.655689652940693035e-03
1.893510530187430055e-02
1.413492575423447089e-03
-1.271293396701018985e-03
-3.238712176932612152e-03
-8.568993715958400648e-03
2.405117404911432874e-02
3.277195684456810781e-02
2.113096688272226014e-04
5.972269241588321065e-04
-3.411545416270207742e-04
1.006152076516025028e-02
5.475041340811837021e-03
-2.434020628558298139e-03
6.021568426264403695e-03
3.694675922041729121e-03
-1.749549962055653007e-03
1.148259601976370009e-03
