# milady test
 # 
 # LAMMPS SNAP coefficients for W
 
 1 56
 W 0.5 1
 0.0
1.640112908682071075e-02
4.844336949564385236e-02
2.793222637768080774e-01
3.360319201662320676e-02
4.960805506441104962e-01
4.754389249719649657e-02
1.799777771271617033e-01
3.644122021668810829e-02
1.030887978759601059e-01
2.102081904475348872e-01
9.556889733707055190e-02
4.080073846364318246e-02
-1.637627571743850013e-02
1.204405208048964053e-02
4.532718447961674169e-02
2.263470258679663866e-02
1.031513571669701035e-01
2.094456802488995836e-02
-4.180679097473113427e-03
-7.929688705463148676e-03
-4.842196351762209638e-03
2.155268077845232111e-03
-3.562028903854208995e-03
7.447915673020732985e-02
5.655461126558866680e-02
5.543697657049993788e-02
3.241370491824119293e-02
4.326801814310020367e-03
-3.284392434708877095e-03
3.022561032884157894e-02
-1.747389645507839082e-02
1.154346953000782994e-02
-1.089443513065340916e-02
2.177008773460481841e-02
5.017347856093944819e-02
2.039057410010669882e-02
3.218452294039349237e-02
4.877649767550090720e-03
1.988386273614418942e-02
-1.346717131435218057e-03
-2.569241972546514995e-03
-3.429625562493405101e-03
-8.302137690510774659e-03
2.510120949327078119e-02
3.181720563210468922e-02
7.895458633956631278e-04
3.721519598635785755e-04
-1.620361946104687933e-03
8.707594079152149169e-03
4.204098450287352406e-03
-2.566469249817834863e-03
3.787613008752744193e-03
3.519547972683583891e-03
-1.182524424943938012e-03
9.132333356542399194e-04
