# milady test
 # 
 # LAMMPS SNAP coefficients for W
 
 1 56
 W 0.5 1
 0.0
1.596018507546050069e-02
5.022036343273206249e-02
2.765673122129818085e-01
3.139326274735103339e-02
5.021237235133974020e-01
4.163291347578409324e-02
1.658420976682452030e-01
3.648586484254449924e-02
9.643886165372944630e-02
2.031179769448223926e-01
9.049192358294760874e-02
3.407412204346831064e-02
-1.724300776271145072e-02
1.329508074035420928e-02
4.016037529685573954e-02
1.401844584901370920e-02
9.597318126800086224e-02
1.149366688618845035e-02
-6.899276366543152794e-03
-9.274820667382090156e-03
-7.433822152034676167e-03
2.275549393405843900e-03
-3.305462545379334038e-03
7.226912803291095366e-02
5.697895428936784745e-02
5.605517557424340158e-02
3.119626177763787020e-02
2.107512980443412842e-03
-5.931543030930193361e-03
2.895061206307864010e-02
-1.599199769433113164e-02
1.137605983048155071e-02
-1.164190462024050979e-02
2.306248566807879083e-02
5.140520771880120743e-02
2.244636359206160850e-02
3.154660884483558025e-02
5.437006469817456944e-03
1.857979649504766864e-02
4.102070336099716830e-04
-8.397231603060120730e-04
-2.786704428238861997e-03
-8.457190494039146245e-03
2.400922315570401880e-02
2.993526056139138997e-02
1.309092150410182120e-04
2.044838131325354123e-04
-7.030481127565726962e-04
9.162365686958211242e-03
4.516635205854518942e-03
-2.483270334163178994e-03
6.355198161560250691e-03
3.235117459521090044e-03
-1.906257749265477964e-03
1.124699113031867991e-03
