# milady test
 # 
 # LAMMPS SNAP coefficients for W
 
 1 56
 W 0.5 1
 0.0
1.345721319645883964e-02
5.814919017272449087e-02
2.187000012754281020e-01
3.058029694084013136e-02
4.893398498607741121e-01
3.251666767958213272e-02
1.679950489688744053e-01
3.643336807401356681e-02
7.757939327722460088e-02
1.822245200794933018e-01
7.105287490526759897e-02
2.237528733733000832e-02
-2.521922666783441014e-02
1.326777345084199054e-02
2.093355385492053078e-02
-4.433993747601045962e-03
9.281846403052110284e-02
1.472155518282141924e-04
-1.388865499705018922e-02
-1.125977650971365061e-02
-8.276137163681474007e-03
1.582253242301281948e-03
-2.937056008123050798e-03
5.805772665001506655e-02
5.152634367527648279e-02
5.363024163126384192e-02
2.908047157956307124e-02
-1.581004964125429018e-03
-4.875631766287157921e-03
2.908399898621604959e-02
-1.077663897462849928e-02
1.080460265753310951e-02
-1.048874096431979056e-02
1.094044014533688061e-02
5.190317593429161214e-02
2.378236876979205119e-02
3.098544311429302089e-02
6.095224600442941676e-03
1.754687060860957160e-02
4.964914505331437244e-03
-4.808637232109336246e-06
-2.866059507774659787e-03
-8.128444839901882712e-03
1.903627218032509158e-02
3.185010222055489892e-02
-1.036471876429301059e-03
2.037512489324599940e-04
1.494736227966184106e-03
1.108159237301684953e-02
6.043019770720192696e-03
-2.031868971211089892e-03
8.530350514007821461e-03
3.136155233316700874e-03
-3.031093487673448827e-03
1.435728798466235018e-03
