# milady test
 # 
 # LAMMPS SNAP coefficients for W
 
 1 56
 W 0.5 1
 0.0
1.599531629414626885e-02
5.134434550706838685e-02
2.986092257645440728e-01
3.307145043819501723e-02
5.192710728008046450e-01
4.476221459868792718e-02
1.763458040400441018e-01
3.680761866831699231e-02
1.069256741900399960e-01
2.112881126133595022e-01
9.653221035166098529e-02
3.823449521337621282e-02
-1.651816863693975068e-02
1.310545456322835013e-02
4.610621815250066230e-02
2.144411895456448114e-02
9.902906420628843076e-02
1.579199618108725889e-02
-6.326249778943665580e-03
-7.703061247689352298e-03
-7.232683725303772071e-03
2.235567382356278953e-03
-2.933301820731704090e-03
7.367925414333675871e-02
5.642826095065756054e-02
5.564954223751311657e-02
3.114433307904763970e-02
3.694443870624620086e-03
-6.467709029962832867e-03
2.843034347557068034e-02
-1.825921356886730032e-02
1.136671271543457026e-02
-1.113225600630446052e-02
2.239356497952907019e-02
4.964823362661382328e-02
2.266532802502475852e-02
3.137868655427922260e-02
4.477411679556259072e-03
1.918248465069475120e-02
-1.904060047180772047e-03
-1.950450716417243945e-03
-2.859258381985605845e-03
-7.841253626290428658e-03
2.266200632881969906e-02
2.788472942682785130e-02
4.958257189653023089e-04
-6.942187395713589337e-05
-1.373281984109651910e-03
7.777056383903412605e-03
3.194400895826462073e-03
-2.485598239911985131e-03
4.756105553078802430e-03
2.799191381324484928e-03
-1.658102035445002892e-03
8.689102577758983648e-04
