# milady test
 # 
 # LAMMPS SNAP coefficients for W
 
 1 56
 W 0.5 1
 0.0
1.094439080478690034e-02
7.256756706095954246e-02
2.277775161287881878e-01
3.358492173103005268e-02
5.248917776916421918e-01
3.327924100153357989e-02
1.720725523576341898e-01
3.869806803242509252e-02
7.190866736102982659e-02
1.734014820729425088e-01
5.678752315341281665e-02
1.126025814250889052e-02
-3.431725100551986929e-02
1.370307473716837927e-02
1.123410817869316056e-02
-1.148414103232960060e-02
8.207373928839957478e-02
-1.074151994222917982e-02
-2.410240346433181052e-02
-1.070245055764374939e-02
-1.029221076812123978e-02
9.930230094064573798e-04
-2.343566447602141167e-03
4.662771085121773795e-02
4.761214121419438811e-02
4.691065872635479667e-02
2.576155612508430892e-02
-5.146944799793568698e-03
-3.931721273953268925e-03
2.620851362659987888e-02
-7.181964878192559354e-03
8.615603692989116935e-03
-9.712739560546052031e-03
-3.123190304729058907e-03
4.940769798256697265e-02
2.512297792961179152e-02
2.833363994763797925e-02
6.125421215758784788e-03
1.761766359503430870e-02
7.136020238578122399e-03
7.174525068720932763e-04
-1.849420095715475099e-03
-7.491016066495354009e-03
9.776337370965473145e-03
2.792286022892061931e-02
-2.406662703718254193e-03
-9.845713819737478278e-04
5.024537312689404678e-03
1.409205036807694052e-02
7.049127950256556252e-03
-1.657415755321537060e-03
8.316327426951281715e-03
2.335243724724809112e-03
-4.366508074811911722e-03
1.148887855253036055e-03
