# milady test
 # 
 # LAMMPS SNAP coefficients for W
 
 1 56
 W 0.5 1
 0.0
1.408943639500664056e-02
5.814473297559442228e-02
2.678549562488495850e-01
3.074123565100482167e-02
5.238882966334548197e-01
4.078022791338759695e-02
1.704958596678803062e-01
3.716790991570965985e-02
9.444305346113124333e-02
1.959490142286647030e-01
8.083091443338158433e-02
2.575100731012370039e-02
-2.414991554450806113e-02
1.418639047534796076e-02
3.084181517347411861e-02
6.855784373703145002e-03
9.265888304412525645e-02
1.183874433427203974e-03
-1.500726290283434065e-02
-1.073378469272160025e-02
-1.015142239588743070e-02
1.469230652899305989e-03
-2.026308020009442989e-03
6.240011837713117793e-02
5.144656716068438107e-02
5.284512591857300212e-02
2.879849401851082916e-02
-3.435207312726742956e-04
-9.868360969305794983e-03
2.656829439802376944e-02
-1.663773921431943928e-02
1.093584990956360942e-02
-1.054507180755162934e-02
1.423549839172097084e-02
5.077921217750327315e-02
2.528672323234330138e-02
3.040383110942415992e-02
4.267037941173494608e-03
1.793897914138375960e-02
1.491919618636511076e-04
-1.052609590170922038e-03
-2.484215152704798146e-03
-7.635691339818923007e-03
1.821114513080355005e-02
2.839077386326847863e-02
-8.579551696618475942e-04
-4.626320088487386752e-04
6.085765147988766999e-04
9.329329548784293102e-03
4.754509114872491372e-03
-2.330568554414825123e-03
6.749004734051641807e-03
2.768335742471927929e-03
-2.420598158785230991e-03
1.066188765561332024e-03
