# milady test
 # 
 # LAMMPS SNAP coefficients for W
 
 1 56
 W 0.5 1
 0.0
1.487880476607205023e-02
5.427145765633394764e-02
3.596605788326340813e-01
3.456369323694530316e-02
5.716425860327520869e-01
5.254410470331345728e-02
1.703048725534891117e-01
3.767109970688353737e-02
1.111342847458166999e-01
2.269129227122609893e-01
9.849256272741302443e-02
4.152765953608514304e-02
-1.508231633381798033e-02
1.475428615918237055e-02
5.172829012793356274e-02
2.720409580238652980e-02
8.919275285390527996e-02
1.456696843714981940e-02
-9.276575082198521005e-03
-4.034497103264685601e-03
-9.732447837157313930e-03
2.998651074320846099e-03
-2.589813393888661108e-03
7.738940884607529991e-02
6.457954553911701701e-02
5.555552508266833889e-02
3.257368780992737911e-02
3.327029571522414908e-03
-3.446449212591920063e-03
2.290774594023819999e-02
-1.561833194342440029e-02
9.996528182254700232e-03
-1.147253075990115924e-02
2.480546154513148943e-02
4.822135682877540241e-02
2.220703959399089947e-02
2.940742548875997092e-02
6.308210482100284899e-03
1.679729331341469831e-02
-1.279990980926958965e-03
-5.532403407403699291e-04
-2.293756418416725840e-03
-6.832647860626789305e-03
1.974927258793092097e-02
2.222391826093639972e-02
-3.606332173365645044e-04
-1.220993702270634085e-03
1.056782391425093028e-04
7.497471351906356829e-03
2.112916755555833016e-03
-1.877245474021461014e-03
4.268148757791204173e-03
2.432273064700847965e-03
-2.781578587489778875e-03
7.685163517746618211e-04
