# milady test
 # 
 # LAMMPS SNAP coefficients for W
 
 1 56
 W 0.5 1
 0.0
1.214933777947817956e-02
6.470935220224716122e-02
1.976527178906687110e-01
2.867981877013472958e-02
4.832663729761378923e-01
4.026988252355519216e-02
1.836997735433744117e-01
3.592913594817916806e-02
8.958155349376427379e-02
1.882073169573104943e-01
8.032586977955541441e-02
2.986639636476997109e-02
-2.531161868450037059e-02
1.358542467892102056e-02
2.037445966060261876e-02
3.291692096459841992e-03
1.010438130629646020e-01
6.118417294894894221e-03
-1.369409311375864927e-02
-1.171010342192995053e-02
-7.357518162731960243e-03
1.808921566099074962e-03
-9.196596087860942070e-04
5.017651339144973965e-02
4.603400650879300310e-02
5.300487488850493673e-02
3.083981748208721937e-02
-1.069676354630128955e-03
-6.914944330853156629e-03
2.909959321131102075e-02
-1.517410183310177914e-02
1.133586821424325056e-02
-8.126995407178566611e-03
1.652782803169528924e-03
5.161815915324798748e-02
2.470259537164311986e-02
3.119821865806463035e-02
3.801672224080197837e-03
1.833859292847601907e-02
9.514899075779431614e-04
-2.429196859635148874e-03
-3.136262302815343017e-03
-6.898465483119675667e-03
1.644772886667549006e-02
3.542917997302118260e-02
-1.089825192767484912e-03
-4.057143171127126067e-04
4.775902839200905220e-04
9.272287528565847925e-03
6.056131889071503238e-03
-2.175759791513188091e-03
7.884687501762716044e-03
2.804843451976359991e-03
-2.051612429290430861e-03
1.526287817414623054e-03
