# milady test
 # 
 # LAMMPS SNAP coefficients for W
 
 1 56
 W 0.5 1
 0.0
1.598567447128805899e-02
5.157368879332847184e-02
3.553219040479447255e-01
3.467736517545798314e-02
5.582720745069013057e-01
4.890484365856073712e-02
1.791406444720622104e-01
3.810111066299704669e-02
1.173715797482065004e-01
2.265094737448870021e-01
1.033471591528467987e-01
4.311084178623991736e-02
-1.490700263216955014e-02
1.367840659583540071e-02
5.513959041988651666e-02
3.158086178227068747e-02
9.585962677900446149e-02
1.850639709324002069e-02
-6.502997160292872669e-03
-4.549901508102367764e-03
-8.037690197781978407e-03
2.533061560992554140e-03
-2.735217265360522908e-03
7.801872712566901291e-02
6.138051629843412765e-02
5.471306111913210035e-02
3.111552415472446098e-02
4.230482289963094153e-03
-5.308893831011581022e-03
2.555842206815566939e-02
-1.868889568507823076e-02
1.062227417307238034e-02
-1.138158963117318935e-02
2.614968021144239985e-02
4.870678772323030342e-02
2.254204410510702097e-02
3.019540290207035904e-02
4.757474613290804677e-03
1.853708526155966110e-02
-2.892067968111985011e-03
-1.770522193827798064e-03
-2.607975173829879968e-03
-7.347329169246963332e-03
2.191735830935423110e-02
2.366090478133718936e-02
2.159431173207327075e-04
-6.762442452385442060e-04
-9.820484928532227653e-04
7.400726152808567715e-03
2.014788083492646820e-03
-2.216653027940885135e-03
3.088574969647973206e-03
2.661318392050027182e-03
-1.983731400074156825e-03
4.724557626049619152e-04
