# milady test
 # 
 # LAMMPS SNAP coefficients for W
 
 1 56
 W 0.5 1
 0.0
1.683979153138086965e-02
4.912596865676849278e-02
3.474612526842276172e-01
3.464742564178498879e-02
5.435606575386520145e-01
5.273147462636083860e-02
1.813584630596312974e-01
3.761993430392816806e-02
1.195675963302812034e-01
2.265245459841586095e-01
1.067072702354982944e-01
4.631877659749775167e-02
-1.332717355951315921e-02
1.286988841128300018e-02
5.889352148499164830e-02
3.561272466496206296e-02
1.000260347890497975e-01
2.305208835889744137e-02
-3.254868833090777958e-03
-4.573559149761118048e-03
-6.366534928622692713e-03
2.747012893863997208e-03
-2.897423499849006035e-03
7.979466214971511762e-02
6.059451239420921703e-02
5.634510371356876712e-02
3.170958477131499698e-02
5.467674330522621917e-03
-5.851331848767925281e-03
2.760473411702710905e-02
-2.119459584686212913e-02
1.113028485124075047e-02
-1.136180759620942018e-02
2.774539934791330972e-02
4.914651010134118286e-02
2.249998545845433018e-02
3.109855366113538008e-02
3.978018058513707600e-03
1.957621891076314138e-02
-4.498093048718342611e-03
-3.035267402196686892e-03
-2.759745231665972076e-03
-7.641466216628423069e-03
2.409840326210134151e-02
2.571348069164220915e-02
1.020263298226229071e-03
-5.479505257990173461e-04
-2.040980378528636785e-03
6.304147250030756044e-03
1.645251723754403983e-03
-2.444484720777240216e-03
2.735448358126817830e-03
2.403431170415686047e-03
-1.814441084858081903e-03
5.105324470749128540e-04
