# milady test
 # 
 # LAMMPS SNAP coefficients for W
 
 1 56
 W 0.5 1
 0.0
1.225802628191204925e-02
6.094611748900143067e-02
1.807798443626469909e-01
2.706535189533507135e-02
4.689330615950393910e-01
3.133009041712894738e-02
1.649751056872413024e-01
3.654710690968428211e-02
6.498622807588838590e-02
1.718852040394517888e-01
5.924676282970776225e-02
1.913962504115640159e-02
-2.984213268574837860e-02
1.291231536672513003e-02
9.184227051264648445e-03
-1.060074859916891946e-02
8.944249106480378630e-02
-3.933510079498239026e-03
-1.721828165604432151e-02
-1.235537008670942009e-02
-7.382962925322342912e-03
9.163266307661843690e-04
-2.685677356544958084e-03
4.968131294667438996e-02
5.157084712234295126e-02
5.163957771722967743e-02
2.877169210328650931e-02
-5.096239347956412619e-03
-4.134965921019841117e-03
3.013834619482690103e-02
-7.809913727648887249e-03
1.084890321791425957e-02
-9.938639840561119820e-03
6.292261867811035220e-03
5.590097602715656672e-02
2.424677257475437928e-02
3.060102166857769923e-02
6.815140211445127813e-03
1.705223627122716065e-02
7.951472543428109163e-03
6.798798840086939244e-04
-2.848805912532496876e-03
-8.208645133647773928e-03
1.849411692204724900e-02
3.688976633024199786e-02
-2.015126647346445875e-03
1.175268135704676944e-04
2.598026537526988006e-03
1.258310072650365048e-02
7.761553353740791028e-03
-1.811679775102049018e-03
1.051526408065407009e-02
3.507136078882561181e-03
-3.471917125868805975e-03
1.789217180163144016e-03
