# milady test
 # 
 # LAMMPS SNAP coefficients for W
 
 1 56
 W 0.5 1
 0.0
1.681423844375090973e-02
4.765976323649735724e-02
3.311375793654661170e-01
3.334578931420961734e-02
5.263463467599314161e-01
5.103817731043139988e-02
1.731135538487869052e-01
3.698664359822063236e-02
1.109164242876938961e-01
2.199903675861892005e-01
1.025881528767630946e-01
4.415233913131189764e-02
-1.263312588084083976e-02
1.293778409275317051e-02
5.472133489672972168e-02
2.936579578611612021e-02
9.792636728039241789e-02
2.166244428029815913e-02
-3.134761643703708189e-03
-5.546086393063172706e-03
-6.244728869527516567e-03
2.507048615068215979e-03
-3.307183874057623152e-03
7.996642553623051208e-02
6.195848117433815777e-02
5.666739301059960099e-02
3.260614148595372686e-02
4.571809433003538869e-03
-4.093935948606238634e-03
2.806182435671953149e-02
-1.849605068108232941e-02
1.116905432837551025e-02
-1.179544528415341076e-02
2.915312098350008110e-02
5.054712745114352257e-02
2.122481878666352892e-02
3.142494871581497790e-02
5.526395844370035615e-03
1.908093637689442859e-02
-2.532830594753288089e-03
-1.654864238013941053e-03
-2.935677422907706936e-03
-8.007973316355457283e-03
2.573676433586959827e-02
2.802774114294450877e-02
8.387066773053730717e-04
1.981778754624740908e-04
-1.714481451850168947e-03
7.386411126092257140e-03
2.661179320491480205e-03
-2.423996021278295842e-03
4.474697148756675083e-03
3.076493666368195889e-03
-1.656928360201321898e-03
8.190277613357999087e-04
