# milady test
 # 
 # LAMMPS SNAP coefficients for W
 
 1 56
 W 0.5 1
 0.0
9.103264127953390739e-03
7.964343378834243259e-02
1.402921758350600123e-01
2.402578252884415844e-02
4.703813277212273158e-01
2.605107412003369871e-02
1.610757934214321063e-01
3.481792508211040138e-02
5.135058710793206221e-02
1.513192088943144942e-01
3.344023462184127909e-02
1.300366765438265917e-02
-3.790688301063858262e-02
1.287489029815272988e-02
-1.085479561134699948e-02
-2.174489995206321108e-02
7.433567548144237591e-02
-1.144755333701145961e-02
-2.655883318910884014e-02
-1.120937101866543995e-02
-7.535561074449286662e-03
-8.889719725329592315e-04
-2.479317706185479864e-03
3.117369835427291971e-02
5.020583874513188244e-02
4.767042125393836094e-02
3.215367689623582076e-02
-8.818866075375152158e-03
-1.860078883716125920e-03
3.222175944660445740e-02
4.457838259763203235e-04
1.093665326769194951e-02
-8.887598467281543346e-03
-1.377842306488812063e-02
5.630270786474415173e-02
2.632197473378274089e-02
3.023781072264508998e-02
8.682337336639509712e-03
1.605687840379680861e-02
1.366677756553016931e-02
2.899192481318855086e-03
-1.606567163038530094e-03
-7.149834968308926841e-03
8.900803434572581579e-03
3.938824547548727684e-02
-3.220672901557545143e-03
-9.417700429723840916e-04
4.658054977099070071e-03
1.411142409214177947e-02
9.080946069129069986e-03
-1.500663041853588908e-03
1.377333579502973936e-02
2.742132809093294089e-03
-4.563649734877799589e-03
2.792483028942139168e-03
