# milady test
 # 
 # LAMMPS SNAP coefficients for W
 
 1 56
 W 0.5 1
 0.0
1.167453812787768060e-02
6.856426578999211263e-02
2.089031590467773092e-01
3.017172767380878889e-02
5.000605006702365518e-01
2.973480146248090941e-02
1.661727628950779023e-01
3.691753940941681217e-02
7.017005482597604704e-02
1.690471742769918961e-01
5.641246431879774759e-02
1.410249485561521077e-02
-3.199697486079226133e-02
1.351962692202089006e-02
1.064638916689410013e-02
-1.237421917162835963e-02
8.446652476718218006e-02
-8.478449356838821394e-03
-2.180895000424028923e-02
-1.179399005458020046e-02
-9.580094375807070295e-03
8.231474208193617637e-04
-2.567787746927840953e-03
4.844206177141315017e-02
4.840044132057354231e-02
5.017206973339170817e-02
2.829709416556162871e-02
-4.394040051319825224e-03
-5.885865484617711085e-03
2.823081473075447073e-02
-8.112339342650057294e-03
1.018733196514319018e-02
-9.947392765995127784e-03
4.554650683516442270e-04
5.144630377695207091e-02
2.656314322297562147e-02
2.963108983167113061e-02
6.084367396085789415e-03
1.738736471664165117e-02
6.823756831855314064e-03
7.762802342133751088e-04
-2.243571784218272979e-03
-7.674390022723270866e-03
1.262541287980688959e-02
3.090496479443459107e-02
-2.182576700038115890e-03
-6.112107496641233650e-04
3.511038509216201937e-03
1.271653902500005998e-02
7.072567981802946324e-03
-1.866050401967189959e-03
9.543260749840090651e-03
2.530160660393181160e-03
-3.930402425865286986e-03
1.509542201634767045e-03
