# milady test
 # 
 # LAMMPS SNAP coefficients for W
 
 1 56
 W 0.5 1
 0.0
1.695247830221619997e-02
5.014302855182725671e-02
3.350345694732069224e-01
3.458130190401884074e-02
5.420115833780040360e-01
4.999251402625822654e-02
1.803066223275266999e-01
3.744498045318907231e-02
1.200151358056500001e-01
2.232609789702749981e-01
1.056920834241114049e-01
4.318043918599521330e-02
-1.470964096681938969e-02
1.298900416753847979e-02
5.784161480653311066e-02
3.511308848906959795e-02
1.015930505814763990e-01
1.962939530339602098e-02
-3.334915151027780921e-03
-5.822508471506518402e-03
-7.212145485421941893e-03
3.484579185727296191e-03
-2.682359415976665051e-03
7.874446310323438003e-02
5.809360753265577215e-02
5.791962763864998143e-02
3.079305847105932165e-02
6.187145015767080147e-03
-9.724593758923164022e-03
2.823027264016792978e-02
-2.359416252034798878e-02
1.172329773866974921e-02
-1.119804552372860931e-02
2.540971177148561994e-02
4.835654444951607844e-02
2.427370045490625031e-02
3.129426559639165301e-02
2.124926300070772989e-03
1.993731768915728980e-02
-5.509383708150364378e-03
-4.403942757762249749e-03
-2.322387071674578141e-03
-7.716829415797987757e-03
2.272745850012080834e-02
2.451080745049001933e-02
1.206768100963741047e-03
-1.468727058620770964e-03
-2.476800363484656792e-03
5.450355995907735229e-03
1.176505242896225050e-03
-2.618042512599616945e-03
1.493986428715580062e-03
1.587051094816701929e-03
-2.130146917438762843e-03
3.627522485154521803e-04
