# milady test
 # 
 # LAMMPS SNAP coefficients for W
 
 1 56
 W 0.5 1
 0.0
9.217073494275133949e-03
8.049735972147575858e-02
2.104714301746981042e-01
1.978703260404866132e-02
5.187691752508372112e-01
4.569482806792211221e-02
1.743052551421341023e-01
3.578585851745073876e-02
7.702139294401251501e-02
1.615482960955280101e-01
4.390947692098450678e-02
9.763767034954844160e-03
-4.155048254773598126e-02
1.332946031010289953e-02
-1.617001545323179914e-03
-8.764254023134732813e-03
8.552795156798027876e-02
-1.625409189274801963e-02
-3.100024830525876032e-02
-1.323148606441778077e-02
-1.068445110718447069e-02
-1.774162630369127908e-03
9.181115907677672716e-04
3.172536775463614955e-02
4.329034830443245774e-02
4.355835335984972745e-02
2.731195988171558967e-02
-8.665366127131406832e-03
-1.348438928203620976e-02
2.827723772955258869e-02
-1.350182467144957037e-02
1.146195454442425037e-02
-7.476609546159307396e-03
-1.152984154937162012e-02
5.869567576261208730e-02
2.945038088263109838e-02
2.975476008155716889e-02
4.782352136717410093e-03
1.847854234434337037e-02
3.990525924713514069e-03
-8.004409769184483991e-04
-9.091423953269117675e-04
-6.078057821816085227e-03
6.458877872730511144e-03
3.865652494390368898e-02
-3.539414094357886797e-03
-1.850293513351912011e-03
4.646540727082784823e-03
1.167428496241498977e-02
7.621914761055476051e-03
-2.351716253253324784e-03
1.036955417789203054e-02
3.071309611607106037e-03
-2.513041446732033890e-03
1.820449645000832067e-03
