# milady test
 # 
 # LAMMPS SNAP coefficients for W
 
 1 56
 W 0.5 1
 0.0
1.474432823015413979e-02
5.508967468164065184e-02
2.596729220930448223e-01
3.349073352157286299e-02
5.080476643256069957e-01
4.953995136242304170e-02
1.886025551216813922e-01
3.675811953190231962e-02
1.049412359896644970e-01
2.089564130291529931e-01
9.582668568687520427e-02
3.877900844145371062e-02
-1.899668314623468093e-02
1.271839717210273939e-02
3.998370454769519661e-02
1.869681031059319126e-02
1.046185379708718943e-01
1.647928645755062163e-02
-6.255805617218863392e-03
-7.687842615529411582e-03
-5.855128873358608765e-03
2.854179484478872042e-03
-2.143785047537205991e-03
6.428264644394962590e-02
5.097674096490652923e-02
5.410818498629144796e-02
3.057552702931390018e-02
2.683875235432155171e-03
-3.652339196647633179e-03
2.877779657915829903e-02
-1.848119935666039937e-02
1.068201109465547957e-02
-9.494745175914309776e-03
1.342029517077046076e-02
4.963465150924877695e-02
2.299268836382217102e-02
3.216441788811481850e-02
3.556703730422779153e-03
1.929211477969075897e-02
-1.509713812137554022e-03
-3.575531132240363907e-03
-3.203148707729132089e-03
-7.637149477118770902e-03
2.145313240884452050e-02
3.128645689798598140e-02
8.469948814362610046e-04
-2.055038356909220086e-04
-1.778159255808909884e-04
8.028470910520613124e-03
3.925826075072690567e-03
-2.276090005113127080e-03
5.011405611786890271e-03
2.505804492730038125e-03
-2.399805817445920929e-03
8.483514764293931254e-04
