# milady test
 # 
 # LAMMPS SNAP coefficients for W
 
 1 56
 W 0.5 1
 0.0
1.277952021734326052e-02
6.740271587758318861e-02
2.548670821463103198e-01
2.880779239789390059e-02
5.406172687674092314e-01
5.304921282831275703e-02
1.347404760484632869e-01
3.777309974115600211e-02
5.905050859950065206e-02
1.761814596278085121e-01
3.686500836914558682e-02
1.070900705935834939e-02
-3.801651425317823657e-02
1.386199981043199046e-02
1.236392592873301020e-02
-1.086349431114437027e-02
6.231526908869663289e-02
-1.774671260744983131e-02
-3.048805125301715102e-02
-1.153241267441043952e-02
-1.115009172247987020e-02
-9.133712559030310318e-04
-3.485784761621312910e-03
5.111188545033191338e-02
5.455708731840810261e-02
4.806237683828581270e-02
2.962880178700603995e-02
-7.552849151510918763e-03
-7.307449033937402083e-03
2.568896271347251986e-02
-8.725349053201630900e-03
9.669582986360154495e-03
-1.268598849604369964e-02
6.775823827043288283e-03
5.383307516960422756e-02
2.476855951773974940e-02
2.803693613574545149e-02
9.777011154522407405e-03
1.617133086218576141e-02
7.096394592325406397e-03
3.271816454051890144e-03
-5.800195919221651231e-04
-8.540427883563544986e-03
1.377563066853505075e-02
3.130955214526717767e-02
-2.698802900379563153e-03
-1.109986660667805058e-03
4.850718981269117568e-03
1.314684147876247003e-02
8.143869178697027422e-03
-2.276122803494318170e-03
1.187186399009377939e-02
2.569720638175592830e-03
-4.643640036095367241e-03
2.395934345205242167e-03
