# milady test
 # 
 # LAMMPS SNAP coefficients for W
 
 1 56
 W 0.5 1
 0.0
1.392541130016428964e-02
5.813039637088675271e-02
1.830632605393721912e-01
2.399484147987221080e-02
4.644317493820825926e-01
3.514108791522575076e-02
1.500477006963573945e-01
3.511810012514649665e-02
6.814467929214441944e-02
1.730870201631291017e-01
5.937598208208552664e-02
2.138934398326564068e-02
-2.764573319707304064e-02
1.296295628920608040e-02
1.346663610689498997e-02
-9.482393937907614839e-03
8.489643794046577985e-02
-4.893069124910325030e-03
-1.652798551608478106e-02
-1.278959705715452047e-02
-7.562181309942444390e-03
9.088628771809631468e-04
-3.009476330212090822e-03
5.170632443044959059e-02
5.231071602377994345e-02
5.293505376234326765e-02
3.073626789702021966e-02
-5.469627553174826601e-03
-7.202456146720291608e-03
3.057436096927480113e-02
-1.044516561082597071e-02
1.132007297981896948e-02
-1.140703666697963012e-02
1.089095461089120004e-02
5.754915412957126164e-02
2.576375661388624963e-02
3.144974806636167269e-02
7.219587196088391584e-03
1.664832678332529847e-02
6.658592785051497404e-03
1.388174756423068978e-03
-2.471664124204935985e-03
-8.943390779433124660e-03
2.013837387244828830e-02
3.783633437696341806e-02
-1.643259921859901995e-03
7.732543656468332527e-05
1.930071239169936026e-03
1.148719670463999032e-02
8.124736202670609919e-03
-2.267837658226801167e-03
1.304401357886409915e-02
3.319868854931142931e-03
-3.654628715655681027e-03
2.275652813275658159e-03
