# milady test
 # 
 # LAMMPS SNAP coefficients for W
 
 1 56
 W 0.5 1
 0.0
1.685729470262392962e-02
4.884474890357125287e-02
3.191877306211221010e-01
3.507844923112408281e-02
5.190091100773751576e-01
4.842273828871151292e-02
1.817523999857056927e-01
3.695618415943331680e-02
1.103779884326456934e-01
2.174652398167528922e-01
1.016918988820689068e-01
4.441770667794917027e-02
-1.348909133939095971e-02
1.200428696911986018e-02
5.402701926208836047e-02
2.904496194508869936e-02
1.021684435898033011e-01
2.455820552214090999e-02
-2.435986591784713041e-03
-5.271545937420622774e-03
-4.783945184668313144e-03
2.276918329710359012e-03
-3.779210282715328006e-03
7.828917182462444280e-02
5.948988459948177654e-02
5.535994963182452183e-02
3.240474269982897282e-02
5.150446711280176615e-03
-1.717015743801917965e-03
2.926008102651972073e-02
-1.766126207243851054e-02
1.106912358628089031e-02
-1.140148845756783040e-02
2.562057786753229108e-02
4.939241424780781153e-02
2.021679011710634036e-02
3.180968777515472135e-02
5.443971076223713679e-03
1.974141832532566934e-02
-1.948801375217510063e-03
-2.246479113743287803e-03
-3.348975599587660900e-03
-8.207199254018165968e-03
2.529322640158442048e-02
2.895971648653260927e-02
1.052333191578679050e-03
5.703137623592514915e-04
-1.499517582691096019e-03
8.191588897900670130e-03
3.132871426159838935e-03
-2.445063689964486076e-03
3.448863559291436010e-03
3.409790326813092864e-03
-1.436698314162112916e-03
6.964092765412988051e-04
