# milady test
 # 
 # LAMMPS SNAP coefficients for W
 
 1 56
 W 0.5 1
 0.0
1.510237918680507919e-02
5.094213732482454765e-02
2.885900238478403823e-01
3.114561140984185156e-02
5.302881196086944859e-01
4.963816511880651816e-02
1.614333958815883097e-01
3.852899100868142912e-02
8.744603991511844254e-02
2.075335871131674115e-01
8.374578949430944164e-02
3.108263216466150905e-02
-2.103607658331050137e-02
1.362748339668969945e-02
3.682070674350382267e-02
1.155511684944262978e-02
8.784054301069968429e-02
4.765966742152932811e-03
-1.116827607804214001e-02
-7.743135101370324409e-03
-7.963285586300536401e-03
2.222026053081208041e-03
-3.053894965356864898e-03
6.795549002686557261e-02
6.021845889436180238e-02
5.354577077322022344e-02
2.866794826986925060e-02
-1.841991023849520953e-03
-3.251693499192240006e-03
2.622949999284344968e-02
-1.401704600996757019e-02
9.418018683976316779e-03
-1.202937753649900923e-02
2.502199220322514836e-02
5.371600589534802211e-02
2.284328475672955938e-02
3.013142752926168885e-02
7.188299539042874997e-03
1.700176615665440968e-02
2.723130572996151216e-03
3.418436522374738149e-04
-2.544845125646150175e-03
-8.577934163336020656e-03
2.430943021207166918e-02
2.970418227665701932e-02
-7.486833344085563891e-04
-1.310619072827923057e-05
1.744618710228910052e-03
1.022891325540111959e-02
5.194482194083971383e-03
-1.915704345764323918e-03
8.350031307190017293e-03
3.066888242802684027e-03
-3.715748800896625115e-03
1.184594986103292957e-03
