# milady test
 # 
 # LAMMPS SNAP coefficients for W
 
 1 56
 W 0.5 1
 0.0
1.250194910347933973e-02
6.391918029443063864e-02
2.184990833738426064e-01
2.939990577725496920e-02
5.026934070135296029e-01
3.533524724589202221e-02
1.604927974878636865e-01
3.804913397575600958e-02
6.723396080862395485e-02
1.747815318793707884e-01
5.807672568184694961e-02
1.530052984010161002e-02
-3.137645331444446212e-02
1.319315857301808954e-02
1.369868638514992916e-02
-9.392278111566116153e-03
8.262339628212204967e-02
-8.558753562812156795e-03
-1.995749635478364162e-02
-1.121507244448637954e-02
-8.638084023291490998e-03
1.109895161362228983e-03
-2.940264568250527955e-03
5.111661755787878791e-02
5.194579627360333685e-02
5.048646645864963978e-02
2.690963707880998992e-02
-5.455163324053467072e-03
-4.490329594985069395e-03
2.826975527487933862e-02
-8.392251759902019659e-03
9.618893243769757739e-03
-1.081344363134290054e-02
6.832920881862324623e-03
5.369282983709439128e-02
2.557390041673182970e-02
2.919883271024769841e-02
6.994077265383001618e-03
1.727862202534831068e-02
7.405543476754969379e-03
1.169283851882432996e-03
-2.185561789717876957e-03
-8.396347365948242381e-03
1.641274640501408019e-02
3.211109389387180324e-02
-2.235994758312361951e-03
-5.218408526981715978e-04
3.769799755037407923e-03
1.320226171665258956e-02
7.470608187973432068e-03
-1.810728770094513062e-03
1.024297391294560003e-02
2.661752212371728144e-03
-4.443500325670063367e-03
1.556553321183318022e-03
