# milady test
 # 
 # LAMMPS SNAP coefficients for W
 
 1 56
 W 0.5 1
 0.0
1.589635263498207982e-02
5.184883890232761666e-02
2.732802796490372277e-01
3.066056388379150011e-02
5.038971534367200356e-01
4.925420621923592285e-02
1.705782384337082014e-01
3.617470458373953784e-02
1.046854035301171965e-01
2.089865572133358940e-01
9.715252819691888586e-02
3.910068706520942322e-02
-1.614114914494994141e-02
1.349077041224852960e-02
4.335970470192206799e-02
2.021701397147844873e-02
9.866859337542005504e-02
1.484759067755054944e-02
-5.669167276325937088e-03
-8.510173595358480614e-03
-7.196574449216230907e-03
2.818976082389498816e-03
-2.367908396810392002e-03
7.001458189796058718e-02
5.580560011182635755e-02
5.607635137273953713e-02
3.214088489761386669e-02
2.287135700570346996e-03
-7.220191468346341679e-03
2.835699343341252163e-02
-1.942467538117432016e-02
1.133434530560956978e-02
-1.089726079556659934e-02
2.090976444287519914e-02
5.181880143124398264e-02
2.357302000094390129e-02
3.223283182175998990e-02
4.042973366901844029e-03
1.874716607581726133e-02
-2.265839315372861901e-03
-2.300835928231887827e-03
-2.826498732899300047e-03
-8.152726072118976486e-03
2.377992573761487927e-02
3.136621724783889703e-02
8.776288059431786026e-04
-1.933828625282769096e-04
-9.426403204321320145e-04
7.646742580196028150e-03
4.132658339229433597e-03
-2.564609699494790895e-03
6.612426965637262233e-03
2.803163664844122039e-03
-2.123505075443038025e-03
1.078611615793978028e-03
