# milady test
 # 
 # LAMMPS SNAP coefficients for W
 
 1 56
 W 0.5 1
 0.0
1.404530587365700016e-02
5.876972533941898780e-02
2.718877872318761768e-01
3.320153974199498148e-02
5.298634401009719719e-01
4.092011097576646328e-02
1.791631972760387992e-01
3.690134445756960979e-02
1.003226555028457062e-01
2.019763819248621972e-01
8.570704510434871970e-02
3.009760110984931875e-02
-2.216066507276076916e-02
1.394320963338465010e-02
3.414577328392298661e-02
9.878851790839485170e-03
9.569914965951904773e-02
6.250590623691688885e-03
-1.289736586981576026e-02
-8.836825296650266393e-03
-9.495414037592832257e-03
1.816489148020309025e-03
-2.240832529806779938e-03
6.358735648352337178e-02
5.135274223917944691e-02
5.290348328524999144e-02
2.948788020994045148e-02
1.405577729925312986e-03
-7.192567417194969948e-03
2.645374772731338975e-02
-1.596406045902544132e-02
1.072721244455599951e-02
-1.016980956225660079e-02
1.246266980947309012e-02
4.854327801875590875e-02
2.445674015764442988e-02
3.080590716118697045e-02
4.204569653817775976e-03
1.798870297909202151e-02
3.501084272383714335e-05
-1.511072311944972046e-03
-2.746545570201353991e-03
-7.266688294735201836e-03
1.721933207629782955e-02
2.682084120716686157e-02
-2.402364059673963998e-04
-4.581684707022152235e-04
5.219836820235957547e-04
8.625816829776256078e-03
3.859904253144661856e-03
-2.192203792064098978e-03
6.037804960081157718e-03
2.460898247105137993e-03
-2.526321415817032057e-03
9.356613779103739592e-04
