# milady test
 # 
 # LAMMPS SNAP coefficients for W
 
 1 56
 W 0.5 1
 0.0
1.692936830510035837e-02
4.611365708790394341e-02
2.827023605512837268e-01
3.287623263510634081e-02
4.929165871962207790e-01
4.662183989574381765e-02
1.742959659747450041e-01
3.599797640368015278e-02
1.015784654495995032e-01
2.087354844230706052e-01
9.646852926316454302e-02
4.022824670320929163e-02
-1.441154745211967007e-02
1.222464395365508057e-02
4.733113093094071244e-02
2.172374342839358125e-02
1.018673536259569051e-01
2.060067742554988132e-02
-3.042692635369236009e-03
-8.070298079308046296e-03
-5.266898471380800605e-03
2.194123160252540051e-03
-3.846109366466066160e-03
7.755649349499636747e-02
5.811509613635674337e-02
5.674972320013790816e-02
3.279937650162655788e-02
4.574269509240613818e-03
-3.962546314597359398e-03
3.032729860678176972e-02
-1.749033698215573043e-02
1.174535087127723948e-02
-1.151720025200944977e-02
2.591916343367564948e-02
5.077528951478169073e-02
2.029701989366205009e-02
3.248521753432916798e-02
5.289150653716558591e-03
1.953324040026941863e-02
-1.246043038011505899e-03
-1.992445682989005002e-03
-3.368283153159277055e-03
-8.508510690937193255e-03
2.662741608895121889e-02
3.165610307380412741e-02
1.117528883923149963e-03
7.214102957939852456e-04
-2.053276460439353024e-03
8.169444038704259947e-03
3.887089067994967118e-03
-2.609736827929684966e-03
4.794850443292249936e-03
3.473743082497961210e-03
-1.244432497475009064e-03
1.066683762611680963e-03
