# milady test
 # 
 # LAMMPS SNAP coefficients for W
 
 1 56
 W 0.5 1
 0.0
1.546933929220455084e-02
5.286275503754468696e-02
3.148103930474572265e-01
3.308802159627240169e-02
5.315074635670532510e-01
4.333395748286329729e-02
1.670508671199223971e-01
3.740725849204803305e-02
1.015808589375166021e-01
2.110116396350913137e-01
9.306133352015798221e-02
3.603141182880645332e-02
-1.674274294478777028e-02
1.384053295177902973e-02
4.467141800781800759e-02
1.849755759844377151e-02
9.216172453588220015e-02
1.187333042320616074e-02
-8.045056433371826354e-03
-7.049845452590706996e-03
-8.218381906912153312e-03
2.680033358759222051e-03
-3.143291836851302978e-03
7.394748133613929242e-02
5.969931042121842668e-02
5.563512656126021888e-02
3.127542358419031776e-02
2.381250434855403109e-03
-4.588768295955185719e-03
2.677371332211983881e-02
-1.530104161276477082e-02
1.070428162480518974e-02
-1.172059572274350078e-02
2.338692324992848112e-02
4.978412255156777766e-02
2.300993720478175866e-02
3.034168255214438059e-02
5.865347136538329176e-03
1.808325275400227139e-02
2.886590028237239771e-04
-4.868358716309528766e-04
-2.438341684578709812e-03
-7.909170780254964894e-03
2.188839444453859889e-02
2.590178595144116899e-02
-3.589378253872967952e-04
-4.252626167732254103e-04
-1.082582929023273916e-05
9.082613726447051616e-03
3.662275487033516807e-03
-2.205784238705433154e-03
5.537244262341218387e-03
2.765907574900201837e-03
-2.449902252457037809e-03
8.609862319097494332e-04
