# milady test
 # 
 # LAMMPS SNAP coefficients for W
 
 1 56
 W 0.5 1
 0.0
1.643141972576319873e-02
4.847662466680530829e-02
2.885808250049998191e-01
3.398346193446601105e-02
5.053300784042028537e-01
4.807108983364553195e-02
1.819061026074955956e-01
3.674398954122862909e-02
1.048756147040242059e-01
2.119172891762040878e-01
9.625436889188621059e-02
4.073760207853457244e-02
-1.652032455057000915e-02
1.200858277239182960e-02
4.656131807285877194e-02
2.349032073354127143e-02
1.028157906655464970e-01
2.066473761055217032e-02
-4.470205128888551406e-03
-7.345483768055070806e-03
-5.056244169241067010e-03
2.011270998538490940e-03
-3.511764024140661810e-03
7.458040278366342979e-02
5.664791433452764924e-02
5.495013088138148150e-02
3.165835624337008658e-02
4.252086509096517086e-03
-3.320367211976708172e-03
2.980330003402232100e-02
-1.774471177837412886e-02
1.131846919491803945e-02
-1.097209950140817965e-02
2.265225646889366951e-02
5.013355250554703268e-02
2.058893216902564147e-02
3.202468673289286805e-02
4.911907607442118386e-03
1.985905419477751108e-02
-1.476992623875725058e-03
-2.489380345657182803e-03
-3.392653484587671020e-03
-8.214686799237563841e-03
2.494990188310191107e-02
3.082470424028899147e-02
8.594240725574159301e-04
4.438239345313268179e-04
-1.506624760319708045e-03
8.477238110869637910e-03
3.768610302720826200e-03
-2.507165749808735068e-03
3.832195064675276031e-03
3.389101104263679987e-03
-1.337616796961216010e-03
8.378557559846067093e-04
