# milady test
 # 
 # LAMMPS SNAP coefficients for W
 
 1 56
 W 0.5 1
 0.0
1.578346628114335112e-02
5.194112060979765716e-02
2.935262309055355900e-01
3.225863724712130232e-02
5.166272743956582536e-01
4.408457508525349955e-02
1.701437751987129876e-01
3.645930240893464902e-02
1.042955304324181959e-01
2.089335765843617077e-01
9.494945184804765015e-02
3.692943069832089337e-02
-1.609130962740018891e-02
1.373116387591294049e-02
4.409510750320742856e-02
1.828646021121310000e-02
9.627053537187198196e-02
1.341946131568627978e-02
-6.926625061364168577e-03
-8.180208368494604199e-03
-8.082887405977394468e-03
2.413764479627843185e-03
-2.873327946964098888e-03
7.307436926940936994e-02
5.694823337050054779e-02
5.619677987520232953e-02
3.176670355237472265e-02
3.156428436094232959e-03
-6.769880646120607359e-03
2.783918265733118999e-02
-1.742560422520993135e-02
1.136318582906755033e-02
-1.130955764485125012e-02
2.226229006550109121e-02
4.989642985426587241e-02
2.303414695163689963e-02
3.137596609843751327e-02
4.780447824862824047e-03
1.847669398304799954e-02
-1.282925088456809016e-03
-1.343518909631976005e-03
-2.743840138183462063e-03
-7.896135297912387774e-03
2.243520335383712011e-02
2.796559190868835171e-02
3.449648607271176850e-04
-1.523590886524268939e-04
-1.057515249302652931e-03
7.975620504681424361e-03
3.538677234427772822e-03
-2.452165753295224015e-03
5.905740150158651607e-03
2.773403171306886017e-03
-1.921759327863211070e-03
1.022566409951213961e-03
