# milady test
 # 
 # LAMMPS SNAP coefficients for W
 
 1 56
 W 0.5 1
 0.0
1.242373843760937943e-02
6.703385392170067847e-02
2.489934832739670034e-01
2.399219079032589852e-02
5.438209796225585979e-01
6.014803968096899683e-02
1.481947515740441035e-01
3.785293777607737914e-02
6.951000806977992996e-02
1.793307987043953888e-01
4.013630496619385868e-02
1.350360570353686084e-02
-3.956270359001955866e-02
1.371788854485292072e-02
1.327280745624122987e-02
-4.918045193532557396e-03
6.888259281194607231e-02
-1.602151445883854067e-02
-3.228927284487641269e-02
-1.165455523898636069e-02
-1.126186646802996953e-02
-2.182800455739610911e-03
-1.762245868717815956e-03
4.598009799162836031e-02
5.319317333557400246e-02
4.486563054531980677e-02
2.803344255978678159e-02
-9.356726705233284203e-03
-1.225694019143576050e-02
2.478206798591138862e-02
-1.349844611727587032e-02
1.028264251662358054e-02
-1.120297134115389066e-02
6.018607926061098068e-03
5.811963550069434992e-02
2.632415923980694836e-02
2.878847763400932055e-02
7.681377977678761383e-03
1.638900252378875169e-02
3.510526072426265864e-03
1.903856502970633019e-03
-1.528442654712817029e-03
-7.968327039880762630e-03
1.439146806999318066e-02
3.639344381076026202e-02
-2.286248762884426911e-03
-7.081218031678992997e-04
4.759297536579359944e-03
1.124783741429587029e-02
8.227115834362808133e-03
-2.356219272413944809e-03
1.268140219132531978e-02
3.154907863887793096e-03
-4.232912163598349410e-03
2.361403929452748907e-03
