# milady test
 # 
 # LAMMPS SNAP coefficients for W
 
 1 56
 W 0.5 1
 0.0
9.695084717335331406e-03
6.996894034528411410e-02
1.667844944609674918e-01
2.438508730213612141e-02
4.833715556147050729e-01
3.703756387502916275e-02
1.690939197074342037e-01
3.848362657500686151e-02
5.606888240569043308e-02
1.655043241138698107e-01
4.484304645863083222e-02
1.278153650887997941e-02
-3.745604736597821921e-02
1.299327363076075922e-02
-4.627821780979560380e-03
-1.430248917068942076e-02
8.151610835891150153e-02
-1.144592962312060078e-02
-2.415373767683886078e-02
-1.175815172394058077e-02
-7.471103502633563015e-03
-3.215548140098056784e-04
-1.834686745503743893e-03
3.732069199472864279e-02
5.257129181894167752e-02
4.578398567070871700e-02
2.534581261672510036e-02
-9.529696352989069225e-03
-2.671665648331899168e-03
2.954881646125102901e-02
-3.685082498456753852e-03
9.817420168448536683e-03
-8.697811088501400389e-03
-2.801791931205260128e-03
5.943651493093159155e-02
2.467903983631255030e-02
2.835801153446209852e-02
7.235808099685377831e-03
1.660570579786383935e-02
1.115956183618310033e-02
1.549974469647857900e-03
-2.428099209604523811e-03
-7.586128838737771218e-03
1.422363485003389980e-02
4.000086407051153814e-02
-3.740848733420260031e-03
-7.636692761744112712e-04
5.232741007751250117e-03
1.481054674101204074e-02
9.048155450866152139e-03
-1.245668578191930003e-03
1.222802177851397068e-02
3.083741572111547025e-03
-4.645973589782484425e-03
1.956674825515424942e-03
