# milady test
 # 
 # LAMMPS SNAP coefficients for W
 
 1 56
 W 0.5 1
 0.0
1.346424061368359064e-02
5.974568419428984145e-02
2.100096945099053924e-01
2.730150881894686035e-02
4.857823193798583850e-01
3.843102203312168119e-02
1.649761049707796912e-01
3.576330710098830218e-02
8.132071289688079518e-02
1.840294560029006044e-01
7.291593600480252013e-02
2.503827915292511017e-02
-2.526606245383600929e-02
1.341655809149683992e-02
2.081898935181151003e-02
-1.733307686207403086e-03
9.204710726044446067e-02
5.318030939171873583e-04
-1.476260719387812066e-02
-1.162990064443716019e-02
-8.232756720227697722e-03
1.655764372182857991e-03
-2.155404120414428082e-03
5.502805551572569759e-02
5.057193033379522168e-02
5.278530136233529346e-02
3.042774827913553859e-02
-2.842124394392916021e-03
-6.789095303643410961e-03
2.865712336676476055e-02
-1.303491909133895968e-02
1.099910432598743062e-02
-1.027990382537615974e-02
9.321500928100336092e-03
5.391024320257246927e-02
2.527719750091446047e-02
3.137477928962054130e-02
5.798249622354056422e-03
1.751946908334806041e-02
3.357186992963951799e-03
-1.208920760369519971e-04
-2.694917839187801079e-03
-7.982797521403989238e-03
1.875276703205873072e-02
3.429616397868728156e-02
-1.003079309689929987e-03
9.974365330676221442e-05
1.509488491661375043e-03
1.033649850917701951e-02
6.586493827229777422e-03
-2.229633617787996069e-03
1.023156085428134077e-02
3.099761717098081792e-03
-2.932375912266276929e-03
1.653773747142873052e-03
