# milady test
 # 
 # LAMMPS SNAP coefficients for W
 
 1 56
 W 0.5 1
 0.0
1.575249798561957973e-02
5.277665759622854336e-02
2.949433463961618762e-01
3.396858714934228307e-02
5.184698084656956807e-01
4.163711926406354902e-02
1.785949717546131132e-01
3.683064685771011287e-02
1.060553157487448966e-01
2.093952261207200904e-01
9.438546981524216506e-02
3.691982432835780314e-02
-1.742430069202470858e-02
1.285717378690538933e-02
4.483387692045370798e-02
2.012201185958998120e-02
9.978029176334352046e-02
1.547437720073909992e-02
-6.476028335793061752e-03
-7.640375054122328612e-03
-7.205757075152571800e-03
2.181214195179997928e-03
-3.078057797052057964e-03
7.247603992760720537e-02
5.577374836342476744e-02
5.517498842770565681e-02
3.076102556442742927e-02
3.992063334308106060e-03
-5.597741684086589287e-03
2.873508934223620997e-02
-1.701050992773081930e-02
1.138586208585785041e-02
-1.097490477512177987e-02
1.977588318906306833e-02
4.872619525120067824e-02
2.170670193818820953e-02
3.124762222555211091e-02
4.715648036409877952e-03
1.932533580438982115e-02
-1.192652690953116979e-03
-1.873616189917679930e-03
-2.907680883265150850e-03
-7.805740965032809120e-03
2.146000960148339992e-02
2.745653897686654854e-02
3.830853340086314853e-04
-3.399248593712044674e-05
-1.265985562394058911e-03
8.352787470903538791e-03
3.252142658108623120e-03
-2.468841942622868046e-03
4.130282551450106809e-03
2.999439343900559950e-03
-1.463050636919171945e-03
8.044320737720656034e-04
