# milady test
 # 
 # LAMMPS SNAP coefficients for W
 
 1 56
 W 0.5 1
 0.0
1.663393271895955913e-02
5.001376074387500759e-02
3.275099812035537905e-01
3.480297108762107211e-02
5.355110747440235963e-01
4.966225119587131670e-02
1.839622420736156116e-01
3.731788671193281282e-02
1.173304156395995057e-01
2.225761876331203981e-01
1.061236331229537949e-01
4.394061694824440145e-02
-1.407889283502323022e-02
1.278546066178313026e-02
5.607594875525422767e-02
3.269750355651999951e-02
1.026492023396795017e-01
2.161345072415045074e-02
-3.103932417955041888e-03
-5.180887035495269390e-03
-6.344277710113546687e-03
3.250552004912434911e-03
-2.871499170081559960e-03
7.719425415020822467e-02
5.807331407085086078e-02
5.573884792432039215e-02
3.139511420709142214e-02
5.108905482640827000e-03
-5.479460471291473095e-03
2.774528112639888106e-02
-2.103802182079358984e-02
1.087964324102331029e-02
-1.097186669264594086e-02
2.447371112646357094e-02
4.876156926717645224e-02
2.298708037271895988e-02
3.171844871074752659e-02
3.276235352594942130e-03
1.943458160877648000e-02
-3.977656083015417010e-03
-3.686095634749982086e-03
-2.865427551642014004e-03
-7.867330740502609387e-03
2.351255151723885897e-02
2.637695764301738882e-02
1.229603709988813954e-03
-6.509777639408798056e-04
-1.426283330145098954e-03
6.830107555798055341e-03
2.255189262806516892e-03
-2.421074440497120173e-03
2.557216578207122115e-03
2.418885268335321803e-03
-2.181475098540116165e-03
4.188133464900212211e-04
