# milady test
 # 
 # LAMMPS SNAP coefficients for W
 
 1 56
 W 0.5 1
 0.0
1.668955094421242097e-02
4.747034353066857670e-02
2.891645279091195064e-01
3.213536952510302053e-02
5.031030430037519707e-01
4.643842646641563321e-02
1.703288880867586119e-01
3.605283192827039851e-02
1.030383764028258015e-01
2.095093085654808895e-01
9.643901204777866054e-02
3.889263259033400727e-02
-1.447842010305462959e-02
1.280450900850194085e-02
4.681597273046914781e-02
2.069758570339065920e-02
9.925635758226049321e-02
1.747506362439546143e-02
-3.895791486742183896e-03
-8.036857360420375518e-03
-6.504249300128359806e-03
2.406921457578841805e-03
-3.474071890325669976e-03
7.645273009617101212e-02
5.835978066212889337e-02
5.685509103117795254e-02
3.218595102496137061e-02
4.000367205548062410e-03
-5.225729505904379291e-03
2.937288089492160956e-02
-1.761427537929654077e-02
1.160421636022722011e-02
-1.166561072673827013e-02
2.587978853457504128e-02
5.099637677387851287e-02
2.127142729832404849e-02
3.215603736432531834e-02
5.270457186446365384e-03
1.907572394113654993e-02
-1.248439248657709066e-03
-1.545240598258175013e-03
-3.022844275927776946e-03
-8.341617592321076691e-03
2.558041393368689145e-02
3.022945781843848143e-02
9.162559661273945999e-04
4.265085569303064816e-04
-1.747712217150552971e-03
7.908648133577347861e-03
3.559316369144471803e-03
-2.571222709661230999e-03
5.565137742878725063e-03
3.169735318859813033e-03
-1.527701214100257937e-03
1.078531887376720910e-03
