# milady test
 # 
 # LAMMPS SNAP coefficients for W
 
 1 56
 W 0.5 1
 0.0
1.616326449660729012e-02
4.987915337747036298e-02
2.763898864383929066e-01
3.289483457049328929e-02
4.980613147708881083e-01
4.548329036871016223e-02
1.768118706554674124e-01
3.649344173818939996e-02
1.010636158832003972e-01
2.074499641821000995e-01
9.434996794344413518e-02
3.908100682787356284e-02
-1.664884814165631943e-02
1.239798465385883071e-02
4.345240248855553739e-02
1.969139194954219046e-02
1.014890993576720996e-01
1.834175955596993937e-02
-5.037505928471269767e-03
-8.274208199840916295e-03
-5.536838368291878421e-03
2.015528934223160141e-03
-3.386352960138172986e-03
7.293103035006716361e-02
5.622982148392496188e-02
5.559887137640810717e-02
3.191237837576899050e-02
3.534547734518736061e-03
-4.052301276997547635e-03
2.993893216865766913e-02
-1.705861478517218047e-02
1.149996173965076030e-02
-1.101896953054865014e-02
2.172151361005952852e-02
5.063963337826028754e-02
2.103941216172470000e-02
3.196205554782363678e-02
5.112784009946289010e-03
1.953584742714362110e-02
-8.721991794164232759e-04
-2.016996501095331962e-03
-3.298450380487010902e-03
-8.293194142844573236e-03
2.462465241396474130e-02
3.148145877400348319e-02
6.203071656211006646e-04
4.784830204293474831e-04
-1.355012017971619909e-03
8.718725222365497629e-03
4.281067967171175992e-03
-2.541042100252105963e-03
4.837939447491488611e-03
3.471788779969384175e-03
-1.351129531253138010e-03
1.017099715372060892e-03
