# milady test
 # 
 # LAMMPS SNAP coefficients for W
 
 1 56
 W 0.5 1
 0.0
1.380689048921713083e-02
5.865655638641120717e-02
2.339463619846079978e-01
2.708990716373206945e-02
5.066221963859662836e-01
3.834517202785610313e-02
1.485005988468124927e-01
3.794528157748668779e-02
6.587530407569953950e-02
1.772656295536386983e-01
5.540210201105007226e-02
1.461982269907145977e-02
-3.183124263727837855e-02
1.311169052747141947e-02
1.700309695593216902e-02
-7.556327667964102268e-03
7.870429728109679113e-02
-1.117258999398033047e-02
-2.106985266286800010e-02
-1.189030637428365074e-02
-9.385359552727937441e-03
6.932001260442077761e-04
-3.235933553815906194e-03
5.563695227716355246e-02
5.487559852251720077e-02
5.071394689947462953e-02
2.711547336240464900e-02
-6.465109960827313679e-03
-7.656785497065273643e-03
2.804679081745986916e-02
-1.057977459529368947e-02
1.002099138082048965e-02
-1.212906663819227071e-02
1.427813296043939015e-02
5.624323920630946300e-02
2.614320293702121142e-02
2.944624889053834918e-02
7.531483581607410077e-03
1.701018236360632083e-02
6.539297603224414335e-03
1.725611724176790091e-03
-1.846054776044172901e-03
-9.000082438817724739e-03
1.893588018521440847e-02
3.259573795001120822e-02
-2.184951041603128141e-03
-3.666479106120835150e-04
3.377255442450808210e-03
1.273763472263048958e-02
7.567734784785534741e-03
-2.097868368251710070e-03
1.080746201834024978e-02
3.129060927920299107e-03
-4.213173914522999608e-03
1.618374634711928096e-03
