# milady test
 # 
 # LAMMPS SNAP coefficients for W
 
 1 56
 W 0.5 1
 0.0
1.427203232796932925e-02
5.514868677565189226e-02
2.353855331609751023e-01
2.964015920323538958e-02
4.968829647878281186e-01
3.654078240038610703e-02
1.626632525769010906e-01
3.643270729252461732e-02
8.093905102410603458e-02
1.874194249423447034e-01
7.361176095249177820e-02
2.386227367565051105e-02
-2.400763052930906041e-02
1.339618360820028949e-02
2.519731291845473883e-02
-1.020478001365499954e-03
9.108419828298401633e-02
2.433695550955878022e-04
-1.337720438344363987e-02
-1.098916904196835936e-02
-8.626698400349852580e-03
1.679961508195361008e-03
-3.016068117875692067e-03
6.153108535757927794e-02
5.338903153264872720e-02
5.402436143643456201e-02
2.931206257977873875e-02
-1.570152984567797089e-03
-6.133552771961737170e-03
2.853522749628628966e-02
-1.246259267269048988e-02
1.085750717233112048e-02
-1.116720383277151028e-02
1.550760001719573081e-02
5.277896974504475702e-02
2.419461696516569948e-02
3.111582001878144058e-02
6.170556487459375600e-03
1.743621371863611144e-02
3.932069412190260932e-03
1.573867766543682052e-04
-2.685933139936703008e-03
-8.364310086693749202e-03
2.060267620572561048e-02
3.140588325208897025e-02
-8.288717265118664135e-04
1.566666841072567040e-04
1.263541705319920060e-03
1.050292517523328077e-02
5.790354991683510644e-03
-2.164350690464584160e-03
8.846982389217973586e-03
3.109665534038671963e-03
-3.066995729459121023e-03
1.430330894072850967e-03
