# milady test
 # 
 # LAMMPS SNAP coefficients for W
 
 1 56
 W 0.5 1
 0.0
8.109228211713094547e-03
8.990088847300906072e-02
1.849389039602299944e-01
6.098829686588935067e-03
5.017051940803042287e-01
3.956734625400625677e-02
1.413662644627806109e-01
3.546621409873616793e-02
3.684812302778248810e-02
1.280640434227273972e-01
-9.313543531920940102e-03
1.458583894939746934e-03
-5.179295515518775317e-02
1.281820923651382990e-02
-2.749548048192378136e-02
-1.696073301876751052e-02
4.858612305947245663e-02
-2.793214732538039022e-02
-4.157228187471567749e-02
-9.687525630750256495e-03
-9.594241742628087377e-03
-8.036923269986756546e-03
-2.461424452695537991e-03
1.758195457983710921e-02
6.302190979463359599e-02
3.281167460643238248e-02
2.822275044799504862e-02
-1.819500151816030864e-02
-9.508314955077338745e-03
3.197728576697982800e-02
3.365205790128562857e-03
1.237388645384893994e-02
-1.009695405161856012e-02
-1.642994866059499168e-02
7.102290094404106746e-02
2.895612076849556071e-02
2.618889305111455831e-02
1.017022863853938967e-02
1.362951817284636068e-02
1.973958643249950143e-02
6.707345878396928085e-03
1.625622538909701981e-03
-7.918526278800158691e-03
6.281495252279611918e-03
5.189710821117066164e-02
-6.547086381657130083e-03
-2.582036198413129036e-03
9.872987817521040183e-03
1.745491259541497031e-02
1.260494804637901992e-02
-2.181835814178897937e-03
1.774902129749223942e-02
4.528517192688388815e-03
-4.229710646339938408e-03
4.249097396326395604e-03
