# milady test
 # 
 # LAMMPS SNAP coefficients for W
 
 1 56
 W 0.5 1
 0.0
1.581313239231826873e-02
5.100750095611684271e-02
2.896356794461060757e-01
3.332527238029001776e-02
5.137732478269360081e-01
4.518540854206940655e-02
1.772561166574838087e-01
3.702719188091028318e-02
1.021624334561136022e-01
2.093396786412131949e-01
9.404415718438066674e-02
3.777216668186420684e-02
-1.723351825839592941e-02
1.274583662349853055e-02
4.355168850087146742e-02
1.909140514038416142e-02
9.919209572138749931e-02
1.609405585631756147e-02
-6.292733674699040568e-03
-7.519214994593712703e-03
-6.399696647768668423e-03
2.054902080867399960e-03
-3.223915281111211940e-03
7.212187309073982144e-02
5.660878556986780052e-02
5.463288590207029255e-02
3.085901657877700849e-02
2.908509509649861036e-03
-3.719218330551880836e-03
2.865837776973191933e-02
-1.643856556417297096e-02
1.098852685242937034e-02
-1.109910388430379938e-02
2.183001598197726115e-02
5.040949994944671220e-02
2.163129465922475000e-02
3.147218814053719116e-02
5.339770441992505723e-03
1.905817361303204990e-02
-3.408988423769799257e-04
-1.529927630219820927e-03
-3.108321699835991936e-03
-8.108233865973007992e-03
2.358900281654745940e-02
2.948160954120690111e-02
4.003540711723165848e-04
3.764882220642500900e-04
-6.333239093116171947e-04
8.881144986955427645e-03
3.927675904982468567e-03
-2.359978690497338983e-03
5.145658268763564358e-03
3.260740866653108038e-03
-1.810025956911272054e-03
8.901796168879760884e-04
