# milady test
 # 
 # LAMMPS SNAP coefficients for W
 
 1 56
 W 0.5 1
 0.0
1.710169000443463941e-02
4.750327770624249851e-02
3.010513379990719107e-01
3.225643018700451170e-02
5.068846000906875870e-01
5.070874749553892780e-02
1.712087713003815070e-01
3.584771490814370187e-02
1.110172784501097937e-01
2.148097641950666992e-01
1.037680232759723986e-01
4.283195970822006177e-02
-1.190369701445709999e-02
1.316364798912353015e-02
5.333875034376874685e-02
2.808476600015984148e-02
1.007450656765923047e-01
2.076894279864466980e-02
-1.884916030944108973e-03
-7.301034189605808133e-03
-6.729321974754821911e-03
3.140340471091053031e-03
-3.005595812925753851e-03
7.909382186480660992e-02
5.940020884937498302e-02
5.839129026694076657e-02
3.326062331594722282e-02
5.310985660438968109e-03
-7.646171714547132618e-03
2.893839630831549978e-02
-2.108601078772432899e-02
1.178962999462438918e-02
-1.147471641021030955e-02
2.721975474936777148e-02
5.051911172895878765e-02
2.236325791620361048e-02
3.245595695676208731e-02
3.693750192764883034e-03
1.922045910840800009e-02
-4.164778153945218608e-03
-2.976876255516520964e-03
-2.917275962858483906e-03
-8.144833447256749626e-03
2.565484379501973070e-02
2.971474313823063013e-02
1.527960620123323000e-03
-2.335987067856349915e-04
-2.626341707958099181e-03
6.195362788129946119e-03
2.660996126456802169e-03
-2.668132633296460988e-03
4.845230889525722895e-03
2.541223382816627796e-03
-1.693581337225095063e-03
9.392529214153899630e-04
