# milady test
 # 
 # LAMMPS SNAP coefficients for W
 
 1 56
 W 0.5 1
 0.0
1.586898277367311885e-02
5.082811687674997775e-02
2.739644583152527901e-01
3.071646663658941095e-02
5.040132205110738894e-01
4.209490464195368709e-02
1.632713860298493080e-01
3.614043971117796711e-02
9.719899618891977844e-02
2.025888740655774900e-01
8.980418470669492004e-02
3.317784754634207911e-02
-1.735039722354200092e-02
1.364372958756574980e-02
3.925610375223737708e-02
1.294918832085337028e-02
9.457948272986564653e-02
9.654687272700936823e-03
-7.652096409625844253e-03
-9.579637718310716685e-03
-8.238986474742505950e-03
2.404381407787925962e-03
-3.076985231484086203e-03
7.151347336899570306e-02
5.669258510094028758e-02
5.618954731473659037e-02
3.134877593496142312e-02
1.948395965549166997e-03
-7.231408108177527633e-03
2.845985079365160111e-02
-1.643855012919077929e-02
1.144573806573035042e-02
-1.166224742669400016e-02
2.245043436756740882e-02
5.148675089885609846e-02
2.317009183704385120e-02
3.164112340861607864e-02
5.196818885765341900e-03
1.829804147032636913e-02
9.447908933023912992e-05
-7.544837103641705012e-04
-2.632594279673550197e-03
-8.338157258071687838e-03
2.327895712268636050e-02
2.961844860642317070e-02
1.587976056291323928e-04
-5.494062947641875638e-09
-6.979393875434294903e-04
8.768686806401561340e-03
4.373515968762675676e-03
-2.510796357564932125e-03
6.958574118753196869e-03
2.989546578577647207e-03
-2.045379095493557019e-03
1.182757698173858996e-03
