# milady test
 # 
 # LAMMPS SNAP coefficients for W
 
 1 56
 W 0.5 1
 0.0
1.372551030549006013e-02
5.706966039691373227e-02
3.449200535329695061e-01
3.421721608894646993e-02
5.915665353146903893e-01
5.760714167243369266e-02
1.672644310489035946e-01
4.053408507926276744e-02
9.413704724517182876e-02
2.220148151782987134e-01
8.229116569147468252e-02
3.215290918725483699e-02
-2.459584175148268881e-02
1.449971122547554989e-02
3.999145940405479660e-02
1.899653682620090073e-02
8.038441363537715545e-02
3.079656300592116796e-03
-1.773509392917127850e-02
-5.035399951208524572e-03
-1.012367223299764918e-02
2.004434147476169981e-03
-2.502847263926911026e-03
6.813941610386220482e-02
6.349553761706629162e-02
5.090106388030046780e-02
2.764620323236174904e-02
-2.313447724147833003e-03
-3.144572957094447091e-03
2.155202132551799904e-02
-1.310697277343055023e-02
8.306492604231805604e-03
-1.170844039104074023e-02
2.266871866656438098e-02
5.111625305271866315e-02
2.300434696404436014e-02
2.751454252813215900e-02
7.485013310728386160e-03
1.633319221965013127e-02
2.070311387808819806e-03
7.618496598698273892e-04
-1.859689086867997044e-03
-7.198727590740305882e-03
1.917475589433233901e-02
2.311403342718374929e-02
-1.778121254570024911e-03
-1.334225695852536914e-03
3.071487349081458099e-03
9.890878711028977532e-03
3.857950673943177922e-03
-1.510347338177564936e-03
5.743888670999505036e-03
2.346815076153154888e-03
-4.118844487435602275e-03
8.594947855624646138e-04
