# milady test
 # 
 # LAMMPS SNAP coefficients for W
 
 1 56
 W 0.5 1
 0.0
1.579295025381927120e-02
5.184816572602945345e-02
2.948518843060172756e-01
3.448916067407264280e-02
5.150732187144579921e-01
4.169913854822238086e-02
1.773122215695069059e-01
3.697504394176284737e-02
1.021060341377898056e-01
2.087091078670652022e-01
9.349845147080892982e-02
3.723330982736688249e-02
-1.692354510301165987e-02
1.262945833813462065e-02
4.433167522728771737e-02
1.913225528610213930e-02
9.920950821845357648e-02
1.672190614015452159e-02
-5.786381917212986281e-03
-7.155894109255270946e-03
-6.430017182050981606e-03
2.224298268770714005e-03
-3.549765059215558970e-03
7.317959655381182926e-02
5.714751851131313204e-02
5.468345378306894294e-02
3.101665232903074929e-02
3.596377795204212802e-03
-2.733106673959622823e-03
2.884186509297188145e-02
-1.517024798196923985e-02
1.104642631023224943e-02
-1.119918410791181929e-02
2.089095263979488110e-02
4.927376845604877764e-02
2.077927893314129859e-02
3.136465236921375660e-02
5.607881730937361309e-03
1.915064907910849976e-02
3.032994640737098914e-04
-1.370064253517578939e-03
-3.023601064624965862e-03
-8.126334840885568456e-03
2.275950174440053916e-02
2.824221228042253160e-02
3.491495089923483106e-04
3.311336471732150856e-04
-5.619135199424266092e-04
9.386240929235317720e-03
3.817007307293673879e-03
-2.345551849590982174e-03
4.207822871638622342e-03
3.383121296448889093e-03
-1.659421731579457937e-03
7.771160390530607032e-04
