# milady test
 # 
 # LAMMPS SNAP coefficients for W
 
 1 56
 W 0.5 1
 0.0
1.633656310721473895e-02
5.004657255621570988e-02
2.822614815060832116e-01
3.372156089750900226e-02
4.989194066308004216e-01
4.472128205570904264e-02
1.781074667098239972e-01
3.646899153594460041e-02
1.021983263885062054e-01
2.082218179204045894e-01
9.530816148814411082e-02
4.014331297630539114e-02
-1.596297317032143934e-02
1.214830444912174019e-02
4.533828269938707661e-02
2.118911103554301997e-02
1.020186126501070045e-01
2.026352421802459988e-02
-4.338175038754936430e-03
-7.795314311112980232e-03
-5.124634529990020060e-03
2.015443089313687097e-03
-3.632044820174761945e-03
7.437380608312371688e-02
5.670384764981994258e-02
5.575115455960377719e-02
3.226525957959056751e-02
4.213943056243230068e-03
-3.377479478171015875e-03
3.031007167269984121e-02
-1.680906175825009827e-02
1.156941347383545066e-02
-1.110958156424778943e-02
2.196422618045760014e-02
4.996412217065584332e-02
2.060433427310118942e-02
3.194066431266553985e-02
5.268510446297322569e-03
1.983205021611000873e-02
-9.570807180280180293e-04
-2.048520796871746829e-03
-3.315698312489318011e-03
-8.274792109797535211e-03
2.451278043261924042e-02
3.091125952658978909e-02
7.043837832839197621e-04
5.539110581551237589e-04
-1.550814141938645918e-03
8.690998361647675474e-03
4.061462646737734605e-03
-2.560658861993608815e-03
4.314987502411027007e-03
3.474812435875752892e-03
-1.189900126323188917e-03
9.658664438051689505e-04
