# milady test
 # 
 # LAMMPS SNAP coefficients for W
 
 1 56
 W 0.5 1
 0.0
1.628634826875288016e-02
5.085083734941135691e-02
3.425918126379332018e-01
3.512498560181671198e-02
5.437542348115281809e-01
4.872968274311219317e-02
1.821498803075357054e-01
3.786467966126624840e-02
1.157792348778057950e-01
2.236332968893487982e-01
1.030852631194670022e-01
4.410060729558348824e-02
-1.460659686219135077e-02
1.294285331706220010e-02
5.488410522220540239e-02
3.103411490473806031e-02
9.866564879709757707e-02
2.129305461291199075e-02
-4.888726535389270600e-03
-4.695899541712723196e-03
-6.538931201607839361e-03
2.311757061615821174e-03
-3.085834882213589047e-03
7.752286470031050092e-02
6.000210942720862750e-02
5.460319631531616175e-02
3.131169179614531201e-02
4.549274287171292674e-03
-3.770552004941508939e-03
2.719749973276424856e-02
-1.838448565337571020e-02
1.075650630640966922e-02
-1.130070568993702014e-02
2.548080060775309921e-02
4.879888301788085775e-02
2.166570943791025147e-02
3.073980593875296971e-02
4.942638146558389622e-03
1.919492582885276924e-02
-2.600742509543104829e-03
-2.008394291624401862e-03
-2.911928848494144129e-03
-7.650789738165907593e-03
2.302071032705376927e-02
2.557891939447334145e-02
5.186916666740717941e-04
-1.739653545463349098e-04
-1.180183292903528918e-03
7.753437932991658066e-03
2.410071234937887896e-03
-2.305723684707717148e-03
3.244494534810393998e-03
2.918190229113549073e-03
-1.732615615434155093e-03
5.318717627548208426e-04
