# milady test
 # 
 # LAMMPS SNAP coefficients for W
 
 1 56
 W 0.5 1
 0.0
9.287857758554418988e-03
7.875885293431342249e-02
2.088936638301349125e-01
2.883931719739030869e-02
5.309956666399254788e-01
3.937794213463181175e-02
1.640429435474667907e-01
3.969427053629419333e-02
5.121798179938027301e-02
1.485582715903245032e-01
2.336531212458815149e-02
-6.315747508377649033e-03
-4.685027232833856303e-02
1.303975979510704937e-02
-7.729475586947331424e-03
-2.431343090423285919e-02
6.915243092904910238e-02
-2.701173638810451874e-02
-3.599198478863804840e-02
-1.238651733566348973e-02
-1.178373061306781967e-02
-2.505492454831171212e-03
-2.360414139880917962e-03
3.502230906372161279e-02
4.842366164179315313e-02
3.872490827375923289e-02
2.141660274800663913e-02
-1.133486507222688025e-02
-6.683826238847792589e-03
2.640595326905388965e-02
-3.462511780552825214e-03
8.264983226002792921e-03
-9.659296283152346563e-03
-9.477700306399355901e-03
5.691269173752509791e-02
2.589033634489140007e-02
2.690148038391695917e-02
7.002608760779623770e-03
1.685947089758859860e-02
1.161502450707148013e-02
2.277555594459593213e-03
-1.093685928820656078e-03
-7.797061737168375917e-03
5.929314355576552342e-03
3.460582727748850312e-02
-3.906081084560670148e-03
-1.163977799673184942e-03
8.012754731522110652e-03
1.708514789997309102e-02
9.143209943577645937e-03
-1.494119311592156940e-03
1.070200076149985940e-02
3.084880459098993111e-03
-5.183235674834230609e-03
1.470801620017448070e-03
