# milady test
 # 
 # LAMMPS SNAP coefficients for W
 
 1 56
 W 0.5 1
 0.0
1.377203346813122946e-02
5.848942311563787994e-02
3.035323662857319915e-01
3.386843102371481229e-02
5.567010012879987091e-01
4.281373571777492837e-02
1.675535139927057937e-01
3.985036168280393226e-02
8.701830318596938396e-02
2.022862495946687877e-01
7.575632151115647972e-02
2.335102761524725928e-02
-2.672716548859995975e-02
1.408182699611837917e-02
3.190341565275107288e-02
7.430476783511539597e-03
8.409366347387628449e-02
-2.247508309639319884e-03
-1.754409750530840084e-02
-8.198204127515852646e-03
-1.009920918233155919e-02
1.617778187086790992e-03
-2.911154332527476907e-03
6.381564767048153453e-02
5.646274732849723699e-02
5.047802432030591702e-02
2.615254512041330012e-02
-2.411366273377436864e-03
-4.911588583238674088e-03
2.446606640459127874e-02
-1.238617749966701084e-02
8.964413949547032218e-03
-1.154772365640848938e-02
1.741910368294981998e-02
5.060598593076492957e-02
2.409578077865991153e-02
2.823121042344247864e-02
6.336711788017406616e-03
1.712120749559161922e-02
3.715468882651667016e-03
5.038019707034879779e-04
-1.980733917029701020e-03
-7.976899085937100287e-03
1.790515445720356966e-02
2.460814660271078147e-02
-1.870011095721754940e-03
-9.391707924906872451e-04
2.923939936423626974e-03
1.164948330830622991e-02
5.070010584509689576e-03
-1.786503636014846958e-03
6.232100083349262354e-03
2.629313195714611927e-03
-3.808729090087684122e-03
8.025236644050026680e-04
