# milady test
 # 
 # LAMMPS SNAP coefficients for W
 
 1 56
 W 0.5 1
 0.0
1.627825352300633910e-02
5.063448704930680749e-02
3.178075209512439270e-01
3.533752771144294674e-02
5.274468848432786183e-01
4.632344459584253338e-02
1.830327936774628073e-01
3.724553994969626719e-02
1.104340713826986037e-01
2.172482574493657947e-01
9.979139778742644740e-02
4.227381181012950656e-02
-1.505009147466021026e-02
1.242161107386748932e-02
5.102995450849331233e-02
2.626659368050329041e-02
1.005554365546604961e-01
2.135728738325709877e-02
-4.345392276660885178e-03
-5.361974460861822916e-03
-5.791049048839508329e-03
2.235308179503799064e-03
-3.486619691591585912e-03
7.575816553910762197e-02
5.829136263683200314e-02
5.433251993995844020e-02
3.139693660528813240e-02
4.462537759492145317e-03
-2.186860363696638016e-03
2.835826306618445883e-02
-1.691283356974835131e-02
1.080065655836614028e-02
-1.120844614849115031e-02
2.343728346214523847e-02
4.890097217888181302e-02
2.089146780841458911e-02
3.146722928438049766e-02
5.305539161185590658e-03
1.937191178362408089e-02
-1.291158989071388092e-03
-1.907195799600705944e-03
-3.165109514031760884e-03
-7.946666128972601495e-03
2.345524066025867979e-02
2.737266465001542137e-02
7.956370219777825215e-04
3.346312765180083082e-04
-9.082295148401808849e-04
8.408385436812715330e-03
3.002428360073416957e-03
-2.323327547560801853e-03
3.778172577871003867e-03
3.170110617170956990e-03
-1.715503316147531931e-03
6.349287883673226940e-04
