# milady test
 # 
 # LAMMPS SNAP coefficients for W
 
 1 56
 W 0.5 1
 0.0
1.083655464114329989e-02
7.287092787361690305e-02
2.175601886549654029e-01
3.083779376489109020e-02
5.237553852186155323e-01
3.640435232296709844e-02
1.621464176685691871e-01
3.839840419833948082e-02
6.099827737575533315e-02
1.608415731993141917e-01
3.761587762052970296e-02
4.285659563576897646e-03
-3.969252868729170741e-02
1.326668647397185978e-02
2.363828148824148861e-03
-1.876330635463270904e-02
7.413196705765742744e-02
-1.805379022000997910e-02
-2.951204686100807051e-02
-1.161706107544147049e-02
-1.065823854738336997e-02
-8.390991331838210110e-04
-3.061378289360650040e-03
4.303082202033572251e-02
4.831131156106498875e-02
4.510655640098575753e-02
2.489236791740840130e-02
-7.263026370576564777e-03
-5.768015598354339635e-03
2.706908903809463959e-02
-5.170637521654342615e-03
9.249369677943847234e-03
-1.030047889124524954e-02
-3.644008777001681975e-03
5.299084450013943209e-02
2.657097944169026921e-02
2.807843162274626173e-02
6.792535343532486031e-03
1.709611856166006957e-02
9.762586959253014007e-03
1.884520044773380087e-03
-1.579437649893516982e-03
-7.872823161816061566e-03
9.264423853347962534e-03
3.091938594438600058e-02
-3.037550938691541136e-03
-1.179679999154705904e-03
6.021135105426487361e-03
1.488541149735015008e-02
7.914538325692610510e-03
-1.689945670725945042e-03
9.952885849739627477e-03
2.319242022388881986e-03
-4.957586416989061273e-03
1.528070167800126954e-03
