# milady test
 # 
 # LAMMPS SNAP coefficients for W
 
 1 56
 W 0.5 1
 0.0
1.264324058498447929e-02
6.249337333864690702e-02
2.431986336840142038e-01
3.312134113819201198e-02
5.238040770951664094e-01
4.346756642255005659e-02
1.850062079014749006e-01
3.782848650953885700e-02
9.087508236863273137e-02
1.954387097711738908e-01
7.795859910437580309e-02
2.645694583970746930e-02
-2.650965659243384107e-02
1.339817827571057954e-02
2.398974546752886960e-02
3.541371729649141209e-03
9.495679033373968791e-02
3.464156775186009053e-03
-1.571094993256641828e-02
-9.032106251464042113e-03
-8.434041394727698204e-03
1.185807664984953047e-03
-1.939746388991637083e-03
5.494384948442546102e-02
4.964873959659422270e-02
4.914682159400227818e-02
2.729171303955526054e-02
-1.586445306975701065e-03
-3.592072432116386049e-03
2.655089463155604901e-02
-1.268682519693748074e-02
9.605022658167136629e-03
-9.339443161671845406e-03
6.665564864501490050e-03
5.056886623305779233e-02
2.346945467889578057e-02
3.027797729561532147e-02
5.114632210667477419e-03
1.804227754030040057e-02
2.753961377346395966e-03
-9.753029060144274842e-04
-2.978171006238768126e-03
-7.232625948880244682e-03
1.619151252119201134e-02
3.007469446493780951e-02
-8.851721645558308094e-04
-9.950660106091552271e-05
2.429396190472333118e-03
1.073456975808081970e-02
5.259444079513619918e-03
-1.842781021079348052e-03
7.267103636415500612e-03
2.868717847732404902e-03
-2.991592841756277044e-03
9.806997110267667850e-04
