# milady test
 # 
 # LAMMPS SNAP coefficients for W
 
 1 56
 W 0.5 1
 0.0
1.687056251665997042e-02
4.643907048749917887e-02
2.876672874085463016e-01
3.208738533274253790e-02
4.981441149590685735e-01
4.680505462327860799e-02
1.694446423112833111e-01
3.624216462293074204e-02
1.006588189427077007e-01
2.091940240187538103e-01
9.617857311905643469e-02
3.975141732956202767e-02
-1.434873576948431963e-02
1.257751273510705065e-02
4.669382530074391024e-02
2.079506162628584967e-02
9.939478204285856489e-02
1.862092870727425839e-02
-3.436177023686954202e-03
-7.903298955233529002e-03
-5.765889034672198876e-03
2.255469777905582795e-03
-3.721605322040911091e-03
7.684688950043104538e-02
5.924209854682153942e-02
5.664778160277608027e-02
3.242700961182123920e-02
3.562422588199539841e-03
-3.984986546642397404e-03
2.971326733608585860e-02
-1.708611894247440144e-02
1.150257976702906068e-02
-1.180613976501821046e-02
2.709438133207666896e-02
5.179675563388574239e-02
2.077267991476348941e-02
3.229225411434080706e-02
5.686377704855984615e-03
1.909814745751460888e-02
-6.688796012413872338e-04
-1.420951246364960058e-03
-3.175970299598596114e-03
-8.658690836111232469e-03
2.693195069405302997e-02
3.144913417994602695e-02
9.309403775271327119e-04
6.934012458172482407e-04
-1.460437927739650921e-03
8.514101477032950949e-03
4.111985717659860651e-03
-2.559058239226585929e-03
5.556337054206845344e-03
3.563033904648682960e-03
-1.555689549260338023e-03
1.084396871499692999e-03
