# milady test
 # 
 # LAMMPS SNAP coefficients for W
 
 1 56
 W 0.5 1
 0.0
1.619561447235857987e-02
5.062506349647984127e-02
2.871405252263257157e-01
3.416662594784761198e-02
5.032041034455756456e-01
4.251229748118078716e-02
1.763498584456671958e-01
3.656085131776098257e-02
1.006808331240067050e-01
2.070993796024684086e-01
9.445250605949180589e-02
3.887359444393227031e-02
-1.569532590606147887e-02
1.233701482484166924e-02
4.514831610870916750e-02
1.950640924228884063e-02
1.006218784227362051e-01
1.917243143345565004e-02
-4.483156927928798330e-03
-7.495313120310525407e-03
-5.523233896243436025e-03
2.127201517579252032e-03
-3.803086659755039022e-03
7.457999222752756396e-02
5.729424689152917000e-02
5.569583756052411128e-02
3.203405442008595838e-02
4.074093141452579669e-03
-2.550642279793333134e-03
2.989224987129321040e-02
-1.560748925249635932e-02
1.138015609440887026e-02
-1.130607392536694955e-02
2.224044021665676912e-02
4.964933575075952676e-02
2.052011475259207102e-02
3.176724487705916145e-02
5.695940580839067846e-03
1.946687110333571863e-02
-4.203161175430487185e-05
-1.542577183349401037e-03
-3.222455882836706021e-03
-8.316940102861491990e-03
2.420366277246788905e-02
2.986448544012261855e-02
5.855594435302813316e-04
6.375650964218874950e-04
-1.111330881254993025e-03
9.095259469549879516e-03
4.031563307393015716e-03
-2.457685557061565097e-03
4.474990959742502356e-03
3.484034117333576885e-03
-1.425051611300672937e-03
9.280459798230999979e-04
