# milady test
 # 
 # LAMMPS SNAP coefficients for W
 
 1 56
 W 0.5 1
 0.0
1.612325961217091902e-02
5.002275918108012309e-02
2.656203852174711111e-01
3.051811481144918112e-02
4.986409676697812765e-01
4.538425264984642660e-02
1.698917639436550997e-01
3.581041979367650951e-02
1.017842557476242998e-01
2.044723194587247106e-01
9.411744386676411389e-02
3.524148601410240916e-02
-1.674470071437390156e-02
1.335589718129828046e-02
4.174670568199093795e-02
1.708024280673703030e-02
9.981377502206249808e-02
1.255577303458949023e-02
-6.140478643678164150e-03
-9.876751571415102321e-03
-7.743646896661363077e-03
2.561062729302357021e-03
-2.685878507974914786e-03
7.156095310965993050e-02
5.490953077411703936e-02
5.675829551495319147e-02
3.147005055794468292e-02
3.022060795742611151e-03
-8.871309034270762409e-03
2.894271191804041049e-02
-1.941134456327613111e-02
1.179888296637788929e-02
-1.106837066681170927e-02
2.181408483093515149e-02
5.139449550043929948e-02
2.318513077430189168e-02
3.222697265838359026e-02
3.839026141992496043e-03
1.879448463319755014e-02
-2.136886748315005181e-03
-2.293710823620086214e-03
-2.910855590531807868e-03
-8.187463885350104720e-03
2.382816193301044022e-02
3.111884263772459955e-02
7.135498164577563918e-04
-7.572388776522914755e-05
-1.712830683330446085e-03
7.482932333444088611e-03
3.943403698447964234e-03
-2.646338828642583185e-03
6.141603991931532391e-03
2.822294933210359180e-03
-1.723832648181080002e-03
1.137297323054065057e-03
