# milady test
 # 
 # LAMMPS SNAP coefficients for W
 
 1 56
 W 0.5 1
 0.0
1.400594271166199015e-02
5.919241208379785735e-02
2.723614883769683859e-01
3.151397038540380835e-02
5.259184313719582615e-01
4.186498664713270840e-02
1.713914844891067102e-01
3.747311946651885051e-02
9.514170150867490294e-02
1.989461792358069026e-01
8.294265338150910716e-02
2.856580019210383861e-02
-2.325305675598384955e-02
1.415282636552627968e-02
3.240599618383337155e-02
8.650387905611834488e-03
9.170500956272972792e-02
3.544601971492623849e-03
-1.416714911935034946e-02
-9.554186257545435601e-03
-9.500452499946125673e-03
1.710062908573242941e-03
-2.146959623749943990e-03
6.236160670161992187e-02
5.256904458943684882e-02
5.271794964413537010e-02
2.942307319063295137e-02
-4.425194615902752759e-04
-7.643598434048964885e-03
2.637000987851300868e-02
-1.564337898949801076e-02
1.053675605596835971e-02
-1.056960473891981923e-02
1.381112602078488939e-02
5.035674547291538877e-02
2.502871168640919894e-02
3.023215227421185980e-02
4.795014458785863687e-03
1.787080825062709044e-02
5.929433593365035504e-04
-7.809598159819880481e-04
-2.534102882103663867e-03
-7.641513711351022309e-03
1.821162700183868999e-02
2.812102499273353914e-02
-7.801402359392944907e-04
-4.722780816195162878e-04
1.009902175368486898e-03
9.611907760992965954e-03
4.871789524992911624e-03
-2.219937639878544200e-03
7.179667223889900363e-03
2.705992742809950214e-03
-2.729621282177518982e-03
1.065183359937382996e-03
