# milady test
 # 
 # LAMMPS SNAP coefficients for W
 
 1 56
 W 0.5 1
 0.0
1.347969340829227071e-02
6.092912923431426098e-02
2.645883456067553152e-01
3.304013331726846775e-02
5.240894987923987447e-01
3.786049909831187138e-02
1.782988372379177011e-01
3.776620050893583769e-02
9.380575522147559242e-02
1.965725621954889091e-01
8.202552056222661703e-02
2.729059306257373974e-02
-2.416138316252164006e-02
1.382561617322559076e-02
3.017608832435425895e-02
6.641111117544999665e-03
9.393213955121668124e-02
3.943053120597214689e-03
-1.437134711850087017e-02
-9.299568147986173039e-03
-9.080984359014568352e-03
1.644282226055560070e-03
-2.197636293680859786e-03
6.040782736291976790e-02
5.139033828382635893e-02
5.155570268203187728e-02
2.856427490702969849e-02
-4.315958865118291188e-04
-5.996785704603505018e-03
2.661017016649299891e-02
-1.412908693760970072e-02
1.016516080515931023e-02
-1.008034480021826988e-02
1.076989032189475982e-02
4.939983016450111286e-02
2.438750040684123030e-02
3.009720956871569930e-02
4.743752255760361192e-03
1.806793906899989074e-02
1.505878917307898034e-03
-9.692868664738368834e-04
-2.751263624369650052e-03
-7.499204199054143594e-03
1.688650701666339835e-02
2.776355438003554055e-02
-9.010698677551498559e-04
-3.453928437613663070e-04
1.437938200169886892e-03
1.031683372449535008e-02
4.987333844054732401e-03
-2.061913253219290875e-03
6.439045416005401146e-03
2.839446902317091948e-03
-2.729404652046768954e-03
9.095566827610063187e-04
