# milady test
 # 
 # LAMMPS SNAP coefficients for W
 
 1 56
 W 0.5 1
 0.0
1.158442691318040986e-02
6.830249935232418634e-02
2.036496757828578086e-01
2.908031678346155099e-02
4.983778135049102831e-01
2.892927648542355928e-02
1.626345549840408078e-01
3.616309416291878243e-02
6.668967397195153801e-02
1.626712031989873131e-01
4.778010479491529711e-02
1.010180386449350924e-02
-3.425760924095500037e-02
1.343618260843254010e-02
6.676345161824712680e-03
-1.648210339634719954e-02
8.273089649185388916e-02
-1.204826083731362976e-02
-2.398635170928731936e-02
-1.270283744905817934e-02
-1.053293946311197049e-02
-5.297642734511386775e-05
-2.737463230763570021e-03
4.751836027602727996e-02
4.786294127151285299e-02
4.995441700709248034e-02
2.806126394425489945e-02
-4.502674491075355639e-03
-7.642485492651909795e-03
2.863174251331132916e-02
-7.539203372079805732e-03
1.089567920571184005e-02
-1.005220610146648035e-02
-3.064907461197593206e-04
5.236204494641859275e-02
2.639383758250244891e-02
2.990290626112087832e-02
6.208345654303414063e-03
1.715757110691442169e-02
7.504656392565432592e-03
1.096557630771863084e-03
-2.116060833385751804e-03
-7.628828617665839307e-03
1.186597717733101076e-02
3.180957503728944896e-02
-2.211369483368974976e-03
-5.836483778959428159e-04
3.325055463753505153e-03
1.257562722927640930e-02
6.884295381164792782e-03
-1.974665801579636015e-03
9.648816981147823740e-03
2.707406902343743871e-03
-3.630896086133580947e-03
1.671462258277218050e-03
