# milady test
 # 
 # LAMMPS SNAP coefficients for W
 
 1 56
 W 0.5 1
 0.0
1.606302495701826885e-02
5.020547406762505133e-02
2.938242280604806966e-01
3.202060035775315672e-02
5.131174930216665375e-01
4.466952102061302887e-02
1.684975822726597072e-01
3.664107067642054238e-02
1.020369912058624040e-01
2.088245754958222011e-01
9.425507181966295833e-02
3.708659857676770144e-02
-1.606196560253026970e-02
1.344792397353995923e-02
4.414145461345857224e-02
1.821544129481807162e-02
9.599979244722674221e-02
1.379494245554565082e-02
-6.419799222899390256e-03
-8.204091062824781996e-03
-7.514912592114106338e-03
2.249057195128966857e-03
-3.118326826659024043e-03
7.386490631787642758e-02
5.788929680752700341e-02
5.620157276640348754e-02
3.153711055433779803e-02
2.793749697349267192e-03
-6.019608334767084790e-03
2.832223667532294056e-02
-1.701649993319262130e-02
1.130039176652835979e-02
-1.159563272044999982e-02
2.431639976694591893e-02
5.079297676058042166e-02
2.246930593261631942e-02
3.140827884877688686e-02
5.278647869531111203e-03
1.858832971957977143e-02
-7.417201783873408893e-04
-1.061336803980753030e-03
-2.792059018099590784e-03
-8.167559196218504569e-03
2.386723416342487886e-02
2.879248536458696092e-02
3.256481838380744800e-04
9.423418462896349101e-05
-1.025568660258852072e-03
8.351807491455670585e-03
3.799362734088789894e-03
-2.458947296197444999e-03
6.061698850244098130e-03
3.021083848041949960e-03
-1.880921904789642973e-03
1.069144183792170022e-03
