# milady test
 # 
 # LAMMPS SNAP coefficients for W
 
 1 56
 W 0.5 1
 0.0
9.927645776233059299e-03
7.243462524555339954e-02
1.749809307436877015e-01
1.983789143459313911e-02
4.825630788151614725e-01
3.569155492386955758e-02
1.681981155807971973e-01
3.634547227400280328e-02
6.483127150330224298e-02
1.619080508707828048e-01
4.772953586944841259e-02
1.536019374173424983e-02
-3.614796340332825098e-02
1.386467672063598083e-02
-1.482949342070649917e-03
-1.122790484081138962e-02
8.441849746143929856e-02
-1.126025334062293916e-02
-2.565401711566071830e-02
-1.309180959114701961e-02
-9.299537335050220288e-03
-1.557588863574474024e-03
-6.111098451712093649e-04
3.565340823967087791e-02
4.960180036356220262e-02
4.635073997422199665e-02
2.832045669749258879e-02
-9.720856895488513144e-03
-9.131452830079350713e-03
2.842188564819822863e-02
-8.597244920121135947e-03
1.118907477558538956e-02
-8.315913648573841632e-03
-3.185300115595254139e-03
6.066204197060291042e-02
2.634908411031014128e-02
2.923455906959418135e-02
6.104456727845245304e-03
1.575948886084852993e-02
7.477504518887439361e-03
8.459944192550361564e-04
-2.555214406938711991e-03
-7.133798032913252207e-03
1.304964842462105062e-02
4.212471775808133284e-02
-3.617169655861978816e-03
-6.657474634387747225e-04
3.622876148439650029e-03
1.241980520564098071e-02
8.864870567156568626e-03
-1.736617718100714070e-03
1.351569990187126945e-02
3.957343053999466675e-03
-3.372504983809559986e-03
2.380217245836869101e-03
