# milady test
 # 
 # LAMMPS SNAP coefficients for W
 
 1 56
 W 0.5 1
 0.0
1.291214852737167934e-02
5.904200689530476887e-02
2.388078708177727993e-01
3.248420217369527713e-02
5.180662321392311975e-01
4.452752884872473310e-02
1.737517874463322953e-01
3.875959970575274666e-02
7.763564707409029153e-02
1.910737478319372018e-01
6.971907223893844541e-02
2.183206845506311874e-02
-2.832094757818954048e-02
1.293591299488421921e-02
2.030010999943742886e-02
-9.581818772908656107e-04
8.964550886772336413e-02
-8.472486708698805796e-04
-1.600688206747183026e-02
-9.397535114776929543e-03
-7.750864201825139604e-03
1.367303715473666909e-03
-2.841874099308693957e-03
5.577857447909222860e-02
5.289740134810391736e-02
4.901596304185298902e-02
2.552200265907050153e-02
-3.487483951108046043e-03
-1.080229895328813083e-03
2.719488425871053119e-02
-9.673996432969247938e-03
9.078844946181177655e-03
-1.041712734488228938e-02
1.086083415801866042e-02
5.320170498498093259e-02
2.244153823568513159e-02
2.964813732367121979e-02
6.806286078757270604e-03
1.771056155348262051e-02
6.179380856800249615e-03
3.028253720388924251e-04
-2.569148943961804821e-03
-8.117312734221449055e-03
1.881750644842138109e-02
3.137451398514638778e-02
-1.521805214534766026e-03
1.652029010373868073e-05
3.589049724230985051e-03
1.269500861561322948e-02
6.247970875487270613e-03
-1.668842276864257023e-03
8.054416185975351444e-03
3.049442649797375060e-03
-3.730832875427760997e-03
1.048867758567384022e-03
