# milady test
 # 
 # LAMMPS SNAP coefficients for W
 
 1 56
 W 0.5 1
 0.0
1.328269125652719977e-02
5.961848817128240219e-02
2.326663595488480951e-01
3.042834803293725104e-02
5.030127405915759686e-01
3.707164910692292703e-02
1.716973517760460033e-01
3.717628641328298011e-02
8.266427218423430534e-02
1.860885895693276115e-01
7.324562754143953969e-02
2.287447137693790142e-02
-2.627625895908811127e-02
1.354811177850705033e-02
2.233521737260471887e-02
-7.980049447323962070e-04
9.281019247408119066e-02
-1.133448217250782042e-04
-1.552779805329863004e-02
-1.124241758564170982e-02
-8.778737190890582853e-03
1.202087418818262093e-03
-2.378184776363645014e-03
5.717894234307752122e-02
5.063846894982770852e-02
5.197553224496469226e-02
2.819750888232456024e-02
-2.005547726791526153e-03
-6.429164721516347769e-03
2.792110180180848097e-02
-1.275616424499879942e-02
1.057126408736432967e-02
-1.017616032224044967e-02
1.053090427399035016e-02
5.210789298371123340e-02
2.444823227826200054e-02
3.037695447980974864e-02
5.334414356385375200e-03
1.777078992572881169e-02
3.359536460250198836e-03
-4.093274454616754876e-04
-2.823684490352910970e-03
-7.863848897015413009e-03
1.824794132450208162e-02
3.148071018939672255e-02
-1.291074404653508095e-03
-3.250114655094921146e-05
1.586983921853808927e-03
1.093398214616964070e-02
5.969922629873052056e-03
-2.069654541869483944e-03
8.070948563574091572e-03
3.108068914193796040e-03
-2.818113119941117063e-03
1.277725254688874979e-03
