# milady test
 # 
 # LAMMPS SNAP coefficients for W
 
 1 56
 W 0.5 1
 0.0
1.286465036047333005e-02
6.219415702059583745e-02
2.260524330311300123e-01
2.926765212303027858e-02
5.027393811521622125e-01
3.146040357310492253e-02
1.627601783344999886e-01
3.701138970190909205e-02
7.337289108243351399e-02
1.737934353715382962e-01
6.033811275105527283e-02
1.505202132574354028e-02
-3.022366432759658952e-02
1.359307094959874042e-02
1.588889827618856013e-02
-9.006328549620894880e-03
8.606153915303559054e-02
-8.042017777435919723e-03
-2.018470832477023066e-02
-1.230503140759867976e-02
-1.001636343165920005e-02
6.591714613589649829e-04
-2.722393743068430173e-03
5.426661148694521958e-02
5.028579277595123659e-02
5.142590198389859063e-02
2.769523989529400904e-02
-3.790674654813832017e-03
-8.366777127224250821e-03
2.801572907501461915e-02
-1.076681321638726062e-02
1.065858794905743048e-02
-1.064886344371271040e-02
8.296771855232653453e-03
5.270458339326974245e-02
2.636983869666454858e-02
2.989727667298578903e-02
5.721502385635374166e-03
1.732400194042510097e-02
5.316588240131935733e-03
5.471441412704114438e-04
-2.388146839060883986e-03
-8.049351756620304332e-03
1.596905720400337847e-02
3.085418939012861059e-02
-1.916098395899609947e-03
-3.423144393423643850e-04
2.522054549045942961e-03
1.183323508178149921e-02
6.555552810169035238e-03
-2.044481828816363967e-03
9.058796818347137486e-03
2.873659096460319962e-03
-3.499675012770916971e-03
1.425775914095956049e-03
