# milady test
 # 
 # LAMMPS SNAP coefficients for W
 
 1 56
 W 0.5 1
 0.0
1.726711494086179827e-02
4.838025849478812257e-02
3.357668840615232742e-01
3.577671766340324855e-02
5.254442271333819026e-01
4.755761275188929993e-02
1.805864320528313138e-01
3.703434828058928263e-02
1.104326179750419051e-01
2.182118387316047958e-01
1.025578307275268053e-01
4.528225498917103076e-02
-1.211274768862606946e-02
1.155988757830433977e-02
5.756018461880083731e-02
3.113963581587005092e-02
1.017545331126965963e-01
2.675130070318742018e-02
-1.248523505097965053e-03
-4.055704832516857788e-03
-4.220337447537358955e-03
2.309543633322239109e-03
-4.326701688451561889e-03
8.096165326839735443e-02
6.184497483282556940e-02
5.537641680199609229e-02
3.256336200610455978e-02
5.558257869986940602e-03
1.678957881605936113e-04
2.933663732182408002e-02
-1.670817897967398838e-02
1.092991203976335923e-02
-1.189397098006667042e-02
2.813262803085811101e-02
4.954267997475318014e-02
1.948503834438427076e-02
3.176172698126589200e-02
6.277473178839115819e-03
1.982698158101118061e-02
-1.337032902784688953e-03
-1.837252702045392028e-03
-3.341213048149827003e-03
-8.414481996267209052e-03
2.618813365488146042e-02
2.829529605098090109e-02
1.132517529713542980e-03
9.428234492024380187e-04
-1.247286527279913970e-03
8.549204050559283674e-03
2.929037734200112819e-03
-2.391144875204698206e-03
2.933160532052600956e-03
3.647282034531588047e-03
-1.481567792941472939e-03
5.777501878104773780e-04
