# milady test
 # 
 # LAMMPS SNAP coefficients for W
 
 1 56
 W 0.5 1
 0.0
1.791309292530066100e-02
4.672311615755173758e-02
2.826319410991591785e-01
3.191344541682090280e-02
4.871290627882142177e-01
5.231226139536852143e-02
1.682782495862897021e-01
3.558476356533917667e-02
1.121196361893301990e-01
2.106460740579294000e-01
1.056573062599828056e-01
4.310828132852744660e-02
-1.282857548671047059e-02
1.272727504152521005e-02
5.532952751714773076e-02
3.355382951002350289e-02
1.057969479990194944e-01
2.066251997633089879e-02
1.095710613402467015e-03
-9.369789410457409276e-03
-5.589030372950289614e-03
4.761087852707346357e-03
-2.513183817593133817e-03
7.900836506310378315e-02
5.625327862951835789e-02
6.330413872179459223e-02
3.326091956604695227e-02
6.753323409907079078e-03
-1.466336318700225960e-02
3.246919249122728196e-02
-2.802440035585529107e-02
1.329910874753800071e-02
-1.108739808679528975e-02
2.683330628455157102e-02
5.101859099138140313e-02
2.589317786780936936e-02
3.363128560178296755e-02
-3.802288845678181151e-04
2.118313493522018878e-02
-7.482186290885164959e-03
-6.973485425765146850e-03
-2.047697084517157828e-03
-8.716718686272773020e-03
2.667879143464102140e-02
3.044177483708803908e-02
2.378148957950312892e-03
-2.123211750828358103e-03
-4.005494814417014798e-03
4.120162496441175624e-03
2.007240895554179838e-03
-3.125536373273312806e-03
1.382877693638584959e-03
9.370418677979580613e-04
-2.375415482611616114e-03
6.591765933566806623e-04
