# autogen test
        # 
        # LAMMPS SNAP coefficients for W
        
        1 56
        W 0.5 1
-5.306025530340759744e+00
2.591712108545183441e-02
2.294595191837314058e-02
5.422676078142089212e-02
-1.515857860731748517e-02
2.710308241071411883e-01
6.536948194327009409e-02
3.475798538165967839e-04
-6.366766500801305205e-03
1.261705705217077700e-01
1.005327634952719318e-01
5.016459778774851053e-02
1.005709651767946466e-01
2.520314141021405985e-03
-2.005242594124444222e-02
2.868250357174043086e-02
-6.644120125006620393e-03
7.042118069043369621e-02
9.248409131321795595e-02
9.696253354145180359e-03
3.521870191839353292e-02
9.471175938407821364e-04
9.905171791222853669e-03
-1.697315250641378550e-03
6.532404922226812960e-02
1.122888982892714244e-01
7.018128798270240054e-02
6.095953559368246649e-02
-2.749806221225049169e-02
3.721700435224631343e-02
5.027029754475165896e-02
7.063453967100940048e-03
-1.079713573832015959e-02
-2.075820898041137383e-02
2.410239729777576348e-02
9.682930337649123254e-02
2.749895916123182120e-03
1.150411204360349444e-02
5.716735599921864835e-02
6.555078391628237425e-03
3.173191817781995799e-02
2.128564973283409573e-02
1.311836419800420026e-02
7.554407075869974762e-04
7.525581754024278716e-03
4.170816697156715797e-02
-6.303459240087223511e-03
1.334499642963406750e-03
-1.648352639358680104e-04
-2.287574275263943701e-03
-2.535081432426416950e-03
-3.706764987594729580e-05
9.624536063653115273e-03
1.756383189045322354e-02
-5.688733307738125418e-03
7.356426713324262616e-03
