# Generated on December 06, 2023  21:01
         # 
         # LAMMPS SNAP coefficients for W
         
         1 56
         W 0.5 1
-5.306025530340759744e+00
1.050995513721218050e-02
4.020944892843689167e-02
7.449049756974793213e-02
-1.175079021210513261e-03
4.666618272585895122e-01
4.057996266005391844e-02
4.573723616856370587e-04
-1.970527309867560126e-03
6.476402622112921448e-02
1.622676466213687219e-01
8.904485843701917536e-02
1.219220610634100810e-01
2.644044106545383101e-03
-5.707059485295458770e-03
9.152279259911650505e-03
-3.534148516467815974e-03
8.428125775802831898e-02
5.602436514206624030e-03
9.948928997538884073e-04
5.397560220533802189e-03
3.163834601299168577e-04
1.887934616335088661e-02
-1.417889987074826257e-03
6.557883222819864411e-02
4.283678754739494998e-02
7.842918808140884879e-02
9.407703401414704847e-02
-2.727262827739072859e-03
1.831695947941870684e-02
8.466458938184816263e-02
5.056376641239582713e-03
-9.431518201386617298e-03
-4.678903511543666682e-02
2.484844872139390509e-02
8.087193386268735906e-02
1.770607160418268726e-03
2.376365290061872165e-03
7.731711345503024246e-02
8.978136460182676096e-03
4.709083473561043870e-03
7.333313727582882122e-03
2.597576988914581178e-03
-8.309056152091744574e-04
4.689862198973632212e-03
5.516304040842856526e-02
-3.488922182941673299e-03
7.044169575681552206e-04
-1.408349402912729314e-04
-3.306115838935941645e-03
-2.074434442505945948e-03
1.583547864697587224e-03
1.117745482550614074e-02
2.043799802134545901e-02
-9.171076102190650267e-03
3.132030845159981119e-05
