# milady test
        # 
        # LAMMPS SNAP coefficients for W
        
        1 56
        W 0.5 1
0.0
0.014488704879105727
0.056827540435133314
0.2706518977988986
0.03159090629463177
0.5160031458705976
0.04369356483770494
0.1724937942468176
0.03709226736130081
0.09348964948137826
0.19883029130370797
0.0816021465867506
0.030596163448895927
-0.022408250122339123
0.013136189506437438
0.03389725668546238
0.011445844592228518
0.09311867718079098
0.00760949723945243
-0.011862770769076674
-0.008633916416396588
-0.00774311666348736
0.0016090740441719333
-0.002781407804398935
0.0643830872671376
0.05490959921508462
0.05283639783200935
0.02997939413358459
0.00026306421497151815
-0.00546351792887663
0.028085520643056232
-0.014676904545907166
0.010748461515859902
-0.010742393817518714
0.01534922829311735
0.05143901865574078
0.02330669060782825
0.030724665212017638
0.005352903149282097
0.01834817284784929
0.0014172315224795428
-0.0010034798009676675
-0.002596152022012256
-0.007893000761362172
0.01987613139318075
0.0301750889426333
-0.00046472984345753384
-0.0002970404610126251
0.0007203827186183465
0.009724604808219819
0.004786218905656291
-0.002225834738882025
0.006471709810898158
0.002915653468117623
-0.002581406113653118
0.0011208843013170583