# 
# 
# LAMMPS SNAP coefficients for W and 'X' specie
        
        2 56
        W 0.5 1
        0.0
0.014488704879105727
0.056827540435133314
0.2706518977988986
0.03159090629463177
0.5160031458705976
0.04369356483770494
0.1724937942468176
0.03709226736130081
0.09348964948137826
0.19883029130370797
0.0816021465867506
0.030596163448895927
-0.022408250122339123
0.013136189506437438
0.03389725668546238
0.011445844592228518
0.09311867718079098
0.00760949723945243
-0.011862770769076674
-0.008633916416396588
-0.00774311666348736
0.0016090740441719333
-0.002781407804398935
0.0643830872671376
0.05490959921508462
0.05283639783200935
0.02997939413358459
0.00026306421497151815
-0.00546351792887663
0.028085520643056232
-0.014676904545907166
0.010748461515859902
-0.010742393817518714
0.01534922829311735
0.05143901865574078
0.02330669060782825
0.030724665212017638
0.005352903149282097
0.01834817284784929
0.0014172315224795428
-0.0010034798009676675
-0.002596152022012256
-0.007893000761362172
0.01987613139318075
0.0301750889426333
-0.00046472984345753384
-0.0002970404610126251
0.0007203827186183465
0.009724604808219819
0.004786218905656291
-0.002225834738882025
0.006471709810898158
0.002915653468117623
-0.002581406113653118
0.0011208843013170583
Be 0.417932 0.959049
  0.000000000000 # B[0]
 -0.000112143918 # B[1, 0, 0, 0]
  0.002449805180 # B[2, 1, 0, 1]
  0.189705916830 # B[3, 1, 1, 2]
 -0.019967429692 # B[4, 2, 0, 2]
  0.286015704682 # B[5, 2, 1, 3]
  0.072864063124 # B[6, 2, 2, 2]
  0.108748154196 # B[7, 2, 2, 4]
 -0.005203284351 # B[8, 3, 0, 3]
  0.043948598532 # B[9, 3, 1, 4]
  0.105425889093 # B[10, 3, 2, 3]
  0.060460134045 # B[11, 3, 2, 5]
 -0.003406205141 # B[12, 3, 3, 4]
  0.002306765306 # B[13, 3, 3, 6]
 -0.003845115174 # B[14, 4, 0, 4]
  0.029471162073 # B[15, 4, 1, 5]
  0.054901130330 # B[16, 4, 2, 4]
  0.010910192753 # B[17, 4, 2, 6]
  0.033885210622 # B[18, 4, 3, 5]
  0.008053439551 # B[19, 4, 3, 7]
 -0.001432298168 # B[20, 4, 4, 4]
  0.017478027729 # B[21, 4, 4, 6]
 -0.003402034990 # B[22, 4, 4, 8]
 -0.002655339820 # B[23, 5, 0, 5]
  0.012668749892 # B[24, 5, 1, 6]
  0.037521561888 # B[25, 5, 2, 5]
 -0.000682693314 # B[26, 5, 2, 7]
  0.008525913627 # B[27, 5, 3, 6]
  0.008977936348 # B[28, 5, 3, 8]
  0.006922732235 # B[29, 5, 4, 5]
  0.003031883044 # B[30, 5, 4, 7]
 -0.000345577975 # B[31, 5, 5, 6]
 -0.001041600679 # B[32, 5, 5, 8]
 -0.001407625493 # B[33, 6, 0, 6]
  0.004211558640 # B[34, 6, 1, 7]
  0.014450875461 # B[35, 6, 2, 6]
 -0.007033326252 # B[36, 6, 2, 8]
  0.004998742185 # B[37, 6, 3, 7]
 -0.002824617682 # B[38, 6, 4, 6]
  0.003831871934 # B[39, 6, 4, 8]
 -0.005700892700 # B[40, 6, 5, 7]
  0.000184422409 # B[41, 6, 6, 6]
  0.001592696824 # B[42, 6, 6, 8]
 -0.000804927645 # B[43, 7, 0, 7]
  0.008465358642 # B[44, 7, 1, 8]
  0.005460531160 # B[45, 7, 2, 7]
 -0.000639605094 # B[46, 7, 3, 8]
 -0.002403948393 # B[47, 7, 4, 7]
 -0.001267042453 # B[48, 7, 5, 8]
  0.003836940623 # B[49, 7, 6, 7]
  0.002333141437 # B[50, 7, 7, 8]
 -0.000665360637 # B[51, 8, 0, 8]
 -0.003460637865 # B[52, 8, 2, 8]
 -0.001598726043 # B[53, 8, 4, 8]
  0.001478744304 # B[54, 8, 6, 8]
  0.000806643203 # B[55, 8, 8, 8
